{"layerSizes":[784,128,64,10],"weights":[[[0.04719621134406042,-0.030434583319734605,0.06048964112040567,-0.06510778115279714,-0.06867741233779859,0.06826469269849472,-0.05440650605749525,-0.10114824603087803,0.02401811052934072,0.031651020992125654,-0.0320707754804867,-0.0237100135720915,-0.09084088926515406,-0.021581788881618505,0.01157447191792185,-0.00513699543233324,0.07174057680694937,0.06513041033027259,-0.046986231422145384,0.08239659644796857,-0.022947638976212135,0.06889892683795834,-0.03439889869570656,0.03819648139692444,0.043617419789828235,0.0457842022218067,-0.04192143346597315,0.0025970720402568935,0.017411824639700965,0.03355985731573526,-0.0753754974663473,-0.048782403760033885,-0.00030566518817302756,-0.02911324738966914,0.0256268238318997,0.021375562107456503,-0.06411936886103471,0.0015580505090598434,0.0918033569151632,-0.05809995749766663,0.0015207915867393343,-0.0852167701099652,0.02864195569206012,0.03462135900433594,-0.004921221161399065,-0.010787283579259321,0.023602490225485648,-0.008581344575862166,-0.10714074723939926,0.019279969824464983,0.0233821385210698,0.01465331786359011,-0.008079565915397085,0.005695199291620136,0.022487877600720418,0.03280347072062447,-0.086456705378169,0.007287682758478669,0.027026361854369293,0.08281151159808266,-0.06151592908756539,-0.03686289509396138,-0.09902874566683256,-0.004249378042374106,-0.061376808018227584,-0.05394423599128224,0.04391881008009989,0.07043788932264027,-0.026135428777223278,0.037262018818043606,0.015017364485119478,-0.025083995567514422,-0.07216375398885327,0.01430805100818277,-0.02329451413202605,-0.03439968920117048,-0.10044880452846298,-0.006693417754737024,-0.09469910926598164,-0.0515393211204417,0.019188080086071417,0.035158362086058687,-0.0040899481926077695,0.06465471731264288,0.015189354153301268,0.08863789587032438,0.0017541478231723662,0.08409937327217348,-0.019696620620996395,0.010461091060373216,-0.03124130115451062,-0.02320450850896719,0.011502607094920576,0.06528598177705676,-0.03210061920292756,0.03908208835922297,0.0072551452439860165,0.12388957328675358,0.12134868236191367,-0.06046784672592269,-0.04341997116085312,-0.0035028011332415283,-0.03540630283417666,0.05571219733871555,-0.0432559563746429,0.025474973101844833,-0.04175036156420022,0.0014053012971957971,-0.05504916921604726,0.012816340059987205,0.007610748117522701,0.007195664979533963,-0.06265709578340027,-0.024733707217975683,0.02736446895159834,-0.01979471385646205,0.01461929236704965,-0.04075553751618291,-0.010315645319304737,0.0099576713926395,-0.008178661042276589,-0.0004228985875394273,0.16963609370816743,0.11193137526383523,0.12523151930302173,0.079347528526779,0.09897806307478905,0.007366638721948505,-0.0947033717180755,-0.028416867164048957,-0.06112256181189987,0.013961647305935507,-0.024546778799812045,-0.07611777430204403,-0.11139018133802746,0.04752901681438261,0.032741066537303624,-0.07256616453047222,0.0484858828216037,-0.11669946823294856,-0.061353492234920454,-0.0855507540797693,-0.061430098709743315,0.056928907323033205,0.049635367020911085,0.058780844424389904,0.02499461908195118,0.024960994641623442,-0.008456416530813358,-0.0385467677556369,0.06958843743767974,0.028846520929230155,0.06942651049425393,0.1399837828435804,-0.056095988164436686,0.008890032885714227,0.028165581915111752,-0.12687728373948234,-0.07056933949275589,-0.04481441878125548,-0.10137419580030145,-0.0638457433346602,-0.07021057425653583,-0.02534021626634295,-0.0024928413943923365,0.018888027391909774,0.010032924322632192,-0.059116947239278475,0.04033889662134091,-0.061669217199539016,-0.08162223238905773,0.029750703354098375,0.049467039381055566,0.06460979648253203,-0.03040381959209911,0.04231192392176985,-0.006581545865391669,0.08945872632226265,-0.024881065596115425,0.04087572408493638,0.04844300773336897,-0.06005096866522318,-0.08256380114519783,-0.07617161728950025,0.05932918594008675,0.010472998651694234,-0.04438726494556636,-0.060376490374043655,-0.0601967123251211,-0.13760018651904277,-0.06497855048443497,-0.02647371649460414,-0.03220836321369388,-0.045481466634835495,0.0030426768254806294,-0.10449712830489877,0.0004411131335402714,0.0021341199099727897,-0.004820456592094375,-0.07252067690427078,0.041208753322941605,0.0075233462981609805,0.06847864594798557,-0.07419973747441427,0.06830137569629663,-0.07428294621509589,-0.06647815953344499,-0.043071523572810244,-0.06739621655459944,0.13768312094355223,0.13660463117250668,0.11513254671515495,0.13629516978838582,0.06247526657501495,-0.058468472189283284,-0.0557375333880487,-0.08595283959684796,0.035063248728904935,-0.13452227595192354,-0.09027177794206846,-0.10254106730430355,-0.009904643970490496,-0.011631890330570792,0.006078949128429507,0.0180159399987601,0.006443683177834521,-0.031419332482515765,-0.055339347717442304,0.05134020519229891,0.055845873111993155,0.04499934453054095,0.020249022254961217,0.08175256353506997,0.03765151359809997,0.0074719174311328905,-0.03763031094432015,-0.11864250204743078,0.14476421294882524,-0.0010487825923292083,0.039485570022080564,0.1164764378223964,0.07824235589605236,0.06829872680896894,0.028378431521764995,0.006147787703724266,0.14912836370411806,-0.0295952118629865,-0.1092953135791095,-0.046927736766237856,-0.03727661468060693,0.03926367660134367,0.02407599386027427,0.015131840037908887,0.04995151564521147,0.032534633678214214,0.0542801858450994,-0.05640476262050916,0.08158301874366365,-0.09052666641968425,0.002230306134846382,-0.04394575548126126,-0.07854922294506178,0.05604624546594879,-0.06487914587821865,-0.06785586956404568,-0.1026006361477882,-0.00968866118774726,-0.00869224827657348,-0.1380458248986083,0.06777569339616132,0.03212693439966602,0.07779544838951188,0.019917630051120353,0.027645128402355817,0.09227733684449385,-0.11468988952959218,-0.005237432719294457,-0.010867127685105936,0.0020312849596807224,-0.052132207481205416,0.06059545259236763,-0.02420215300998789,0.04640596161141124,0.02062780437814287,-0.006558041717934784,-0.038535681241027284,-0.08286490185909665,-0.055946153936529214,0.0577471695777786,-0.060850713551357266,0.06925569429413184,-0.07433648760299831,-0.10778037762266218,-0.1339364691633367,-0.05890551403326716,-0.18056128584911457,0.03919184667867795,0.034935734295442764,0.19919183521916786,0.09486015115584022,0.0573372858349141,0.019650441334486745,-0.011505474147281279,-0.026210681914565596,0.0010480765788927321,-0.05929971701010664,0.02454979574495898,-0.04271077089223557,-0.028513714422570394,0.03184122556689797,-0.006541272298041186,-0.06668492582593002,0.019587714716777147,-0.08095634835618265,-0.04910490843925304,-0.03340731596306427,0.07391551959985421,-0.01658159819356818,0.013787873353116162,0.046795481572975715,-0.09970969643273248,-0.04125744652812396,-0.014873405873354437,0.06931760985324124,0.1810845797664636,0.23630868470882835,0.13821820523505784,0.21129876555524665,-0.06547223976508137,-0.031093677746042894,-0.1438967258427004,-0.1168790546480172,-0.03847290308001101,-0.05636220685637218,-0.01382946108005869,0.05229388249705184,-0.060988269892793774,0.10500997954769851,0.03269902603184539,-0.19135936098389605,-0.10983499161257325,-0.15133032647273173,-0.11538992358029987,0.04389805610711805,-0.08462148669475864,-0.004418201381880239,-0.09021935494711222,0.08242916357673519,0.020677832284970353,0.046217543075326224,0.2332230021135612,0.09093730810304382,0.02555843347538236,0.1467852852455285,0.013256564960017767,0.12065300841052459,-0.06764696807826188,-0.05747209144441616,-0.15947111947429002,-0.0702490212404124,0.01579066515711063,-0.0501519186181841,-0.054613419886349504,-0.0451007635560742,-0.030111948665161505,0.04992635077954223,-0.01152743543943999,0.08093189328518227,-0.08894828843200907,-0.04461862250776322,-0.07674071883830871,0.038518176719578696,-0.06772974315840323,-0.17597156851043846,-0.11054073929032965,0.05091866960335872,0.0969750609515275,0.12232345312070818,0.10136805540474358,0.0877442287647509,0.05822208466266366,-0.11140901765252569,-0.02488133033042549,0.051716471792800554,-0.06217464000353577,-0.17002362967175058,-0.08346634162944995,-0.020098185572227697,-0.009320144206359302,-0.03336038397330405,0.06365080460023712,-0.03724986183525848,-0.07839508297733508,-0.014996690017547333,-0.013698634446535,0.05077081419615549,0.07170787338574855,-0.10365482838268325,-0.0007737536430531744,0.0628051542137136,-0.02552310683584935,-0.12073315943231354,-0.06104453920206898,0.040050335390426316,0.14314553753888234,0.1960710202003796,0.12102513517277246,0.103258370835933,0.005375463169385181,0.02261079486216801,-0.07843072906198399,-0.06634037908511772,-0.013096407772353423,-0.10484017439028777,-0.06814608945355549,0.057143000817206045,0.013408201264763175,-0.05098577312805298,-0.040210162949395764,-0.018892024767841072,-0.04559720299156056,-0.01804661217229955,0.09578306986711153,-0.08082045019289,-0.07973502937890227,0.07557712020866447,-0.000012244154496532373,-0.014879207666334462,-0.05112850426903622,-0.17158527406968735,0.034319712709879574,0.024771645950533393,0.11524136116264191,0.15477305074609174,0.04001189013444995,-0.10207862687186585,-0.0293578195116901,-0.057954389816903706,-0.00021139219340266674,-0.006963297954567282,0.011664792832419082,-0.050011021758836274,0.05020101703902355,-0.00045413783810453317,0.01663193072032906,0.10635607107963041,0.053586028546710046,0.06849798787017795,0.14365750540777514,-0.04036159014905798,0.07162519511127242,0.14818574626368328,0.01702785975889778,-0.001924040013742492,-0.0338283196930016,-0.05270145069605605,-0.024451787742933797,-0.08138003233707936,-0.05095152878620885,-0.05683879923528296,-0.09535222817631278,-0.12744517662377275,-0.2223528409255627,-0.18361902724511822,-0.003656373424304637,0.02535041898592677,0.10624804713238101,0.012107407755198939,0.1101373837910368,-0.13999361226257478,0.11008398301336379,-0.026833942872998097,0.13684780668802232,-0.03237629379380931,-0.006674672508820809,-0.01641068216841537,-0.06569928830678598,-0.027659681506169664,-0.049746756855901166,0.046158930276322556,0.03194322365720855,0.014096973640022123,-0.010854977696795012,-0.020025998690386706,-0.11761362489151633,-0.12498334388711581,-0.04396998507935874,-0.19685501179514328,-0.237741176946477,-0.10661939799477137,-0.1916289474250951,-0.10741619741224415,-0.0603999802073636,0.09337119269556242,-0.05283664385762928,0.04912227760634794,0.01995734031673116,0.09308084035175981,0.0013082982613881907,0.004798143776797371,-0.024213771029192338,0.02537424618196892,0.06039670409295715,-0.051926125498766074,-0.0015776386313637292,-0.04753435610504014,0.016049832124381352,0.018550736681172096,0.06951611995536933,0.11931058039277105,0.08196976823293409,0.05308193082135006,-0.00031678244658105007,-0.038633890666845194,-0.12043352952439451,0.014402773435307938,-0.14521656483658843,-0.22093096547230398,-0.11724669309944054,-0.03253083243430237,0.04632561951656001,0.04281394861052482,0.15319975996312682,0.1604669032001288,0.02183525852216203,-0.049344928781159036,-0.05395561035165702,0.025540053788620298,0.02193066928413558,0.034358381783597576,0.014887050969021187,0.06618645883968184,-0.0035266404507833145,0.04636924290772961,0.0607245907540557,0.040004976077012214,0.036434013587370195,0.12703931054917827,0.035966719785666144,0.05549359734271269,-0.0026339013354660947,-0.12132908558406627,-0.0317209710766905,-0.029230907364620605,-0.08355505210858159,-0.07961341014729541,-0.00887787798732084,0.014021749647644301,-0.0650895521388994,-0.09434248019905371,0.029378278577032405,-0.012632134987649968,0.01847880255623163,0.04811482510495123,-0.019542418603942974,-0.005401303620361022,-0.05552934606228329,0.0044216011030784996,0.0836017876221899,-0.0635535067000782,-0.029302181626238672,0.08235209695611405,-0.05767913964408245,-0.058585005397495254,0.08012641228684182,-0.007417175282579553,0.09418448593072402,0.06644468362475243,-0.024740892612430867,0.042230454112760864,-0.051927925091306136,0.08804575933974454,-0.13388130245301508,0.006431915047387769,0.06293662001037956,-0.0668495141417567,0.007253216948235657,-0.1288007385444867,-0.08350944749321226,0.03717147260246743,0.09005518110895692,-0.03020524982055772,-0.011922838270963661,0.08048787024925391,-0.033718840645097795,0.06308184856398714,-0.027387211834119806,-0.017432442437991233,-0.009731636734038408,-0.00019857480932227762,0.09880646805845994,0.05474783124176853,0.03582727688567398,0.0037010726515286866,0.011881234433051656,0.047039013966885,-0.01641938260331098,0.055654470234239375,0.0029896598586895864,0.087987641271797,0.14035810595606543,0.1163828059875581,-0.0036280306082503043,-0.010076695444903576,0.03371624194107629,-0.15302716301242628,-0.04638550490185113,0.05342041636705178,0.03833809907255237,-0.0803057601794682,-0.006340633912262372,-0.018965846124954455,0.059236592432040415,0.04860381422736898,-0.05465140902145011,0.09492980744768502,-0.04148683881673817,-0.07936955294923922,0.0110218408195959,0.07705996985814788,-0.023045786039948363,0.040141069603157956,0.019924318702020816,-0.15328264815283615,-0.03502876123414713,-0.0595173797828672,-0.09465203440503782,-0.023323887250805166,0.10728355377040304,-0.022174522967590177,0.10724616561251203,-0.00424810643914965,-0.17251391131669955,0.0358851012089633,0.015555588879797572,-0.034737118138615346,-0.06285230161249677,0.005123265573088877,-0.05100855351329129,-0.03907187076260693,0.016411154464717567,0.03906564168069415,-0.0036675143777061985,-0.0032298170225825242,-0.04865799578002238,-0.020469656029893382,-0.04758264830356861,-0.034150653357586214,0.034877740699988134,-0.009010018992288234,-0.02376929803633297,-0.012235399937816352,0.09552018937543008,-0.016944686049813206,-0.0032100484956719233,0.08872028250352032,-0.043976166539051606,-0.033270374148714484,0.0420061764458893,-0.04479290978718485,-0.00807198860751019,0.03046901248464285,0.046122705807956445,0.03883368782586431,-0.024777206794179496,-0.05063337755886066,0.03401460784845171,-0.03318845305457943,-0.05247884722723801,-0.02640107142863304,0.02632850548018694,-0.02347839416360854,0.008559660731819567,0.018353259309906958,-0.07392606378257677,0.07224017264532909,-0.03809995861194585,0.06302568521554468,0.07774987855861691,0.0626155583761294,0.0683625448059213,0.033749386876955,0.02243486089688707,0.0587857453374182,-0.012319291404230076,-0.034529053238042264,-0.05624711246953815,-0.06351478273412245,0.03865773952298172,0.16790732750723425,0.09943997476794685,-0.02303155821626637,0.083077047035659,0.0022137181101177213,0.0848201097919258,-0.01758061191552114,0.041118230166571096,0.003125836691608378,0.015470118578184406,0.0029854877457923127,-0.01622131173041843,-0.023498465182263267,0.028301822021225737,0.011968535413056829,-0.007858826508283286,0.07377197035947274,0.06657622149363537,-0.03936951671621358,0.01935433001849672,-0.013291104068022782,0.04195160725982342,0.051498592926416745,-0.038375097988827316,-0.021675716946714364,0.0836008447561903,0.08172210541171585,0.010161337848819577,0.012495916391599164,-0.04696978515474779,-0.013732903548470954,0.02429971814935465,0.05911156589248653,0.09254418481596184,-0.016332690532110856,-0.05230353983608811,0.017708837982749664,-0.039300899096846094,-0.12755876921337297,0.1092192751785022,-0.06696113619359188,0.07028484018628392,0.015029837672833453,0.03363913059319935,0.09137054488631835,0.009431674403006234,-0.032161980976121544,-0.00842509060882844,0.011542546517479471,0.06459634512711895,0.09658942441411357,-0.02340852278882407,0.03560910025869053,0.022768224984484546,-0.05696118207666232,-0.09005375292282612,0.06559638372526502,0.11014112925579772,-0.01069123514439059,-0.0174236737871747,-0.02922369746444633,0.047169531884273794,-0.11269169614109739,-0.010975833560316567,-0.023629417675479186,0.0007532643214586125,0.05953301691407223,0.1315582324011928,0.005497069141202366,0.023491424749789012,-0.07096712678026168,-0.03321559973551317,-0.05998777203166006,0.008860883366841458,-0.09181215818644108,-0.0395491727997224,0.015663059636601907,-0.014281173083484349,0.002385120309332225,-0.03490197648955049,-0.021637588217680154,-0.01868292543817944,0.012622909379392143,0.01743020076964098,0.01120247907985355,-0.05429490118041078,-0.07076247461541771,-0.031725447244938136,-0.050476231244879086,-0.009026477594089151,-0.041359772067278124,-0.05570571248872272,0.0012592441680110019,-0.0008005366140667832,-0.010290163541071628],[0.026407399417349115,-0.015422078659132522,-0.02621883805947135,0.008521786653647112,0.06544222454470151,-0.025952548573588117,-0.013467895915984806,-0.04629913687826882,-0.06143004765151242,0.013614957604481994,0.021574625250517444,0.008059375299709537,-0.06064155860492472,-0.03614337721155202,0.02749051284312535,0.043597670444007995,-0.022457064170562955,-0.10627676270366816,-0.03400552061267456,0.04072808626905578,-0.02271924145297183,0.03943305102238627,-0.04353917029272115,-0.03366748179691271,0.004958243556026633,-0.039585293195345865,0.05703192108782217,0.021137796156053896,-0.04360544710170533,-0.05649424424471696,-0.016575339015453307,0.022997104294150493,-0.02495460445967936,0.05691775920981208,0.03914283572485739,-0.018309561548004904,-0.014776375083652128,0.029470275964426407,-0.07529120708890023,0.03598148731883437,0.11873151445360446,-0.042397130411260794,-0.05365534993835866,0.015699137680580885,-0.06406444246699271,-0.032376777466909916,0.12448181973210833,-0.1054719171010412,0.019185768947383122,0.007469063752173596,-0.03443168151093841,0.009590523792322876,0.021703666326499397,-0.029623815699750065,-0.05218542132822593,0.028808024570545154,-0.0764641291440426,-0.03332527581817348,0.027380636173914084,-0.02930616167529525,-0.039692582861968674,-0.0273909885164327,-0.06334410302597461,-0.025252830028057123,0.03249228095047626,0.025411714324066133,-0.0542590309517487,-0.026396382977767977,-0.09246624371523676,-0.0661229863275058,0.03802044229369644,-0.026782512712774726,0.02553082163232698,0.042719045572616486,-0.026959753112995987,0.0978696457271438,0.04403821627004062,-0.0076830560845467695,-0.07595026539744389,0.0807008815973697,-0.002207464884104412,-0.0012057490711846535,0.020074786121868637,-0.049130320608880014,-0.006699732968945363,0.07891906017353695,-0.03253496270559105,0.016486570910749145,-0.011012083473456061,-0.09091905577734892,-0.0017220818353484008,-0.020842952482819324,-0.06948756940284974,-0.041532880116853285,0.030500623177593236,0.10106547694824089,-0.055898588948383746,0.011225875998560318,0.10052121655368379,0.10885500462153427,0.020948744586312254,0.040880799367796684,-0.010067583108384183,0.060994500113552716,-0.0032713961802711216,0.1046667969886106,0.03750470522055499,-0.029308134179270116,0.0516713662394748,-0.048715549347456505,0.005824768921270726,0.009267456134635166,-0.04162454888907783,0.015084376037418181,0.06607070766313139,-0.0447777218710703,-0.05460424523720368,-0.042838567286396644,0.012620240631255811,-0.07672491059802895,0.03296717057309067,0.06243315747485366,0.044242977132654945,-0.03720831459464015,0.07262973783115823,-0.0064334001310624635,-0.03232241048910742,-0.06477581868367986,-0.11361260884729339,-0.0030672502269857914,-0.00839957793343211,0.021224243843065267,0.028859137333914018,-0.007440837152652709,0.008032154488449508,-0.09841050731692808,-0.07576092204220608,0.012209221071875442,-0.04618601468021958,0.028769172521395645,0.010395318498908821,-0.04416303115372613,0.04346329356632014,-0.058266449074228496,-0.03191831661651976,0.04184276639689752,-0.04302608061401916,0.013855155083563078,-0.04339124450784022,-0.008372820688508595,-0.020198622324726304,-0.0776048095571394,-0.09004591261912653,-0.0279779764044393,-0.048393379752329706,0.026672559883625595,-0.1353058135332938,-0.0913664403560035,-0.08511201016082452,-0.0154160719323094,0.006122307488389668,0.017527156685070523,0.06636841953038708,0.06622787574539092,-0.017464074600089145,-0.02535265986795148,-0.0020906319959692133,-0.03759742515639134,-0.10629071538177548,-0.005141749189737192,-0.026457986158314788,-0.018125660441459777,0.0454918552615872,-0.02273755728730475,0.04649858707608933,-0.0029617471849440464,-0.09401943212671471,-0.08207484129258465,-0.04673222734187079,-0.04791721417198249,0.058122189691201684,-0.06259287507133215,-0.01340158137849091,-0.07102170685872333,-0.01029083125990327,-0.20970927588073335,-0.16256475199954817,-0.13537395500804728,-0.06285685356445606,-0.09717936304148099,0.0693558017012026,0.11731072571642173,0.0024129198174942675,-0.01031188651528052,-0.035374499385127274,-0.00009922953882793771,-0.07356170496333347,-0.03591437972201887,0.009621842113860786,0.030593646257111067,-0.023235185725496026,0.024124936636109873,-0.06492418764315668,0.020416286492705073,-0.05068972315559823,-0.07556450419216457,-0.1029235319441402,-0.01682030073982829,0.058525229445513846,-0.026934591443218563,-0.027056501921692233,-0.053584554196652465,0.07406598312228053,0.07032513986503923,-0.0907015085965719,-0.06220329782243873,-0.10993389655338336,-0.04403324250056351,0.04698988491262876,0.026465047210693825,0.15952035993686903,-0.006903046384749353,-0.027784542655978097,-0.07099578375002102,0.09228339372733971,-0.03901374356460892,-0.03808945814682716,-0.04351406512740835,0.05125627908502318,0.009166902844186597,-0.08524453652866802,-0.11228633805581634,0.07298717440253012,0.005921100924175117,-0.11693876031026973,-0.053492175883419604,0.07940694851090636,0.04263394809179394,-0.08243998034384963,0.017528037507388763,0.05557004815125991,0.08499897011569958,0.13159537523118514,-0.02338996848810202,-0.10316434646555078,-0.1505852184206957,-0.07595660140920976,-0.06884800440785221,-0.05709702179836157,-0.004947117232328482,-0.06798067232518516,-0.05541138259878998,0.0077047285147809254,-0.07207007451549098,0.0714117352758533,-0.01852135385872935,0.0262758922672521,-0.036129649894975156,-0.03548944582777862,-0.021631568111886833,-0.008222085073873089,0.012130850328868282,0.009530151122242536,0.03807922765960742,-0.022689272365863437,0.10469318434367055,0.026165598833519123,-0.06207538064663302,0.019346135968533407,0.08879676368304015,0.09722271429390211,0.10010290293295021,-0.04034248133945255,-0.18543713224183028,-0.11886456287185605,-0.07943052233147216,-0.08365359593342026,-0.06805529723988069,-0.007742644275823995,-0.04982691624730298,0.011743345939277559,-0.06231511986297493,0.046588391766269166,-0.005661998716285116,-0.01562820390912738,0.046326470759599,-0.0015404234401463987,0.07951200701312527,0.020788128723759364,0.029089247853057297,-0.0649171615833654,0.012947652289460262,-0.058454915544318184,0.029009854318818484,0.07392729616007215,-0.044188893397252176,-0.04066047701065528,0.12762044071194012,-0.06484957640772607,0.08167879370988476,-0.05038605532634811,-0.02787240423925378,-0.0065032339982651925,0.023478579026537424,0.021851636076737672,-0.09253733507947313,-0.1684213717758832,-0.04776848529581005,0.014003477302871931,0.043844339451266805,-0.02322862096796289,-0.0010490238592307166,-0.07270410497086692,-0.08762865003089279,0.07542393031241557,0.05304236617660627,-0.06549425370410834,0.04133374803411837,0.029606459414063056,0.09596982199774472,-0.012367391395887689,0.019180705508386166,-0.11321842765280977,0.07241893079067654,0.1365285034189074,0.14481927540095027,-0.01989338153283381,0.09758794277699508,0.06738724700910971,-0.00013667350693480414,-0.03357063213806564,-0.07898626162958329,0.08218219191034798,-0.0055487531336806785,-0.007031129737542054,-0.046957998681492114,0.008114890019383477,0.04873964916413918,0.017926313351237635,-0.008962728427243043,0.0005679635298008128,0.1404735887027444,0.10708285871522498,0.06305525374325752,-0.003867755676118457,-0.06106470991246829,-0.1382203810188536,0.045092878343421544,0.04853157008405631,0.14297719969989195,-0.055889063004141634,0.05568844453089975,0.0823768321772572,0.13924725646683395,0.05169724929149491,0.1653732995923652,0.1114355725136403,0.13276985345702344,-0.011777717521853057,0.022771612126801708,0.01665832582203675,-0.03239919668991922,0.07101270134447173,-0.05252757231079854,0.05829375697202812,0.02871533118819175,-0.1506262016446875,0.051102663374442754,0.08246428280413082,0.037206561822749985,0.028823338495395166,0.17227237798651068,0.05734609518336917,0.062297866274229244,-0.04172502563429518,-0.1585379045633221,-0.06734475177118049,-0.05757413986737085,-0.10463965509605687,0.06128611410026719,-0.13164726463142284,-0.045311422071519995,0.01669071727293107,0.10855013499708067,0.1563694964225114,0.12282155847127046,-0.014709371574522383,0.14070673523417346,0.012850789452872833,-0.04139180510428392,-0.053519619246566494,-0.05928884182831733,-0.0059238345178802285,-0.046483755549604225,-0.026135166002526543,-0.044198130800386516,-0.006997463578015447,0.05836479250880463,0.07525300024820793,0.050183845959780475,0.016065486160826585,0.04842547760982994,-0.04285705146637203,-0.018830107355824393,-0.03526180550403683,0.004773284847604745,-0.06565687505858721,-0.08871323541471474,-0.06251781244566838,0.043417661320341736,-0.02469246058215668,0.08025225020505967,0.2023282949939073,0.05585903479954164,0.08549568860905764,0.12932527352494302,0.11299443757472306,0.042508959633252734,0.012415987671972727,-0.005974561057535815,-0.03353919624700592,-0.13146048141658942,0.04969073797803004,0.029252652839806673,0.034684597513292996,0.0750351463995087,0.040843995461270904,0.06552460186477346,0.026238389919579313,0.05979104224224512,-0.007153458585193998,-0.01939807689515953,0.1051660371925144,-0.014543775916802988,-0.008387091218062456,-0.038480702383194745,-0.10217779517839289,0.05190764683688166,-0.1362281401325898,0.07330482845841937,0.08586243934730728,0.11479674606876683,0.019975191077579814,0.03635023521030629,0.10430536167571018,0.0083287336460992,0.02663281537550122,0.002653548727996574,-0.019001697828221652,0.061252688168021,-0.05298451727789663,-0.0245066171534891,-0.0468136483651491,-0.010226338896567402,-0.029021051998450745,-0.013491771564379485,0.06404757556324472,-0.0982622310036276,-0.02011011682137599,0.00837648934590549,0.07324254983611338,-0.10806821105552855,-0.10050159986414972,-0.010196290274276957,-0.03441272730219714,-0.05593755129810858,0.018742368286605034,0.06015784027393344,0.10613565796000715,0.02212665107820115,0.02389377185666497,0.10399946564063949,0.05723707725401458,0.02653472733543763,-0.11092054189706152,-0.10098594967922493,0.08410209242014799,-0.012684506302487502,0.07372559586035077,0.006145589224648842,-0.042783809562278015,0.06224219363825722,-0.07998256290489626,-0.03179377363915463,-0.013663372643303778,0.10679259571421774,0.04727542976556052,0.15024686835832157,-0.0033837602379649377,-0.08145213463235745,-0.006888020857215678,0.06748867416537177,-0.015326912488399973,-0.02566374566630043,0.011557567839870594,0.027915595828045852,-0.027662462202571673,0.056539460144375275,0.02799550923425099,-0.04669677404978686,-0.022142438600151228,0.049008494177772866,-0.053974708639774084,0.011306813093778876,-0.0057119152343532865,-0.008459020693530763,0.06706967006832423,-0.019586721587365505,-0.06918895494978293,0.01973773930688752,-0.04045032004373929,-0.029267641684218366,0.03276770326559366,0.15738117217007574,0.025499557273314044,0.12268115550968967,0.00608861237105461,-0.04908537036127983,0.14971450108047007,0.026323623944405804,0.007178244455417254,-0.03581419152164475,0.07634981851155223,0.04883441938212007,-0.0874006604004219,-0.04359151847927683,-0.032517763059962686,-0.061058210899743254,-0.016450315887432305,-0.00177018990369343,-0.017475941441156308,-0.04702170754123837,0.024903069525601326,0.0477555511641231,-0.014162045724412656,-0.01359758606725628,-0.0028560103963014252,-0.04242763143517793,0.030141901749290795,-0.07770163887654624,0.03501835601496122,0.021121216327466195,0.05074040209591151,0.1281436808052562,0.13181160047667018,0.01057908495073902,0.07790966824095355,0.05706498227970235,-0.010950172392554825,0.07155810353574071,-0.05849301401502988,-0.08674848842592578,0.00242034292141978,-0.030169797806350464,-0.0051677102724888915,-0.12673524934380379,-0.09932157209110946,-0.12418999451701956,-0.017012349558632543,0.00006879530572793964,-0.05788422122717602,-0.04892292047088571,0.004665512381349517,0.006423512333304733,-0.0034822269460397302,-0.005783159071162366,-0.012913574461717547,-0.12969872430965843,-0.056683019032332645,0.05729705716832081,0.028085543816399813,0.1503062654301636,0.09881934437437613,0.12678556132017482,0.10672122164884493,0.03075713799668519,0.0651356328167377,0.019563219034310117,-0.09505760516284081,-0.01535463496842336,-0.04862747963379769,-0.11265159937595169,-0.05505888218338205,-0.1313204658625138,-0.1007153273020488,-0.07927459801368547,-0.046696515513254454,0.018099149458767005,0.039651034650385455,0.010187794967098006,-0.008319379528898373,-0.11468032461755259,-0.0712705441199607,-0.04568976402530308,-0.10618471732952077,0.027642612438553565,0.0748892305874687,0.055820196091602464,-0.03291276374058754,0.12017198841081932,0.033988203293329515,0.025919674278104144,0.03771594618473518,0.0267633542985422,0.06530983549772089,-0.10136672893343708,0.020201032189940387,-0.012091605677738875,-0.10702329742708544,-0.039717082893800396,0.026283126622578947,-0.1208430086152781,-0.06405050701612003,0.056437659292850856,-0.029256240960126478,-0.00029540286421878573,0.0382432916960814,-0.0200252613194,-0.020208499693709105,-0.03236779222031727,-0.07797614284376005,-0.030536120823850214,-0.09070618945514068,-0.031200162165113052,0.0025714802995422076,0.030972575517848315,0.10569481173711741,0.038116760418696445,0.057360837505392934,0.01939722324168525,-0.0434010796490248,-0.047224389015064906,-0.07830132860819958,-0.057123331250710035,-0.003902074796149661,-0.0419057419964279,-0.041115311386749294,-0.028874231900592313,-0.04088615169728292,-0.017884349769980476,-0.1146139728640987,-0.02756409679082613,-0.031207249472974298,0.041825164097775855,-0.051036550253598344,-0.019558755587633102,-0.08738222912961441,-0.06608062225658781,0.055577438083720364,0.0012020613146526248,0.03008262525429423,-0.05385461429093152,0.03910472943501593,-0.019628190957817072,-0.049533183257400894,-0.021567951049772386,0.00958406103532898,0.02558826836098898,-0.044675441953078814,-0.055754436368215206,-0.06265974434069035,-0.085298106370562,-0.033988327760735224,-0.06715468848775225,0.004436333489298027,-0.015478162927501156,0.0336816007447612,0.001767144928590734,-0.07511637121986435,-0.00469825527671995,-0.04269464021599677,-0.010687296593349731,-0.010087365344081467,0.009527653696002133,0.05891609388620906,-0.04623606972651885,-0.039804879601841404,-0.07449001675747302,-0.10092766076797524,0.012520044011655308,-0.035671672674804464,-0.07803716039075646,-0.07425122367942422,-0.1252975223824624,-0.06247682945003605,-0.0644351717203388,0.14476658773157425,0.08441351613847996,0.028541847386438585,-0.015238973428136076,-0.021436043016673588,-0.04931325156089748,-0.0428732754570093,-0.016471384432040874,0.015037169217606748,-0.04972860864171593,-0.029592416010497405,-0.006793132095491904,0.05173047821489154,-0.02635128909046365,0.02554278899007092,-0.016857387124554816,-0.06859314500540208,0.035608300473984875,0.01825290890529777,-0.01477481852562665,0.038213796853685665,-0.0572804612956581,-0.12259328286876237,-0.07398549072441725,0.00250928826330467,-0.11213280084523954,-0.04172816044203545,-0.08340804543745763,0.045210406066464946,0.04596320170333431,0.0023949428795322705,-0.08647994594303966,-0.011184820092052244,0.009624251017791354,-0.09288865569085326,-0.0584315578736786,-0.03956192741027043,-0.050122949985418656,-0.05100202421086562,-0.05124497588273059,0.05000664544396229,0.03135697337782591,-0.010537491918517581,-0.02254055313525483,0.0010487908408367168,-0.06158295847654166,-0.0452691333184356,0.011109852280408167,0.06073118969670634,0.017431952701370334,0.037048390463307705,-0.03299707315329384,-0.06468274722660894,0.05175188936764026,0.12681008103010505,-0.11604030340480853,0.021659370079672294,0.07641415708510219,-0.05088530105372733,-0.1109575621611624,-0.03433986818470288,-0.03372769685384035,0.016262932348868202,-0.006405192480313997,-0.0441569357335773,0.0556426604441905,-0.005545611639411487,0.021154486389484063,-0.012671909184975525,-0.040691369482509586,-0.08026286559022552,-0.080774982804695,0.12171867491725447,-0.04356504230378607,0.030994251722815246,-0.043093622388772415,-0.07086335212683104,0.03107044918952046,-0.04060591400928213,-0.08207251735870835,-0.010675603402705828,-0.15008137141704836,-0.06802326002306558,-0.050791227419020535,-0.07748737365830924,-0.06489900391030622,-0.08006495197232101,0.07146831968864573,-0.03707620376578616,0.029460824811143805,0.0671546618219371,-0.06374043791643245,0.033022905984506586,-0.058134108789141936,-0.08704353644266707,-0.08128215570626218,0.1050243662228986,-0.020069562393128734],[-0.04022394018172856,-0.10731832800885585,0.06566529586083035,0.009272695310953668,0.08892330458585081,-0.05392728647103294,0.06841331663375183,0.02414122171001637,0.015544072388431033,-0.034128729800812406,0.04922970951875432,0.07795733402672538,-0.056150985281522375,-0.020603198607499103,-0.014055652534116675,-0.05359505257502769,0.009605264395630997,0.0071076829086570235,0.04134769288728448,-0.011577700120180298,-0.09706436049011283,-0.008602183703757753,-0.07242824121074388,0.0038591033011383656,0.043183388283884044,-0.0029092111698487745,0.018702993246837114,0.05859032323165273,-0.054131050769032345,-0.030243430647655414,-0.035210783390095084,-0.004045863114579655,-0.0024195958005376592,-0.05679433149029546,-0.02117517143395172,0.0662845379229357,0.06285688971081854,-0.008063336764656684,-0.010224905891013977,0.05279479110711435,-0.0781619673575164,-0.08727802128931346,-0.01905661684397195,0.035255831127913057,0.0060985553412067975,-0.022804846449655584,-0.04523316866050242,-0.030536561713212652,-0.052769605872546116,-0.05582770879951262,-0.04704847929351508,0.0320464410086362,0.008546032186646653,-0.027788423080952283,-0.05981343310368661,-0.03610355038263492,-0.017480762318835934,0.07292701516014131,-0.03317632336939097,0.024561041558767188,-0.04915776342529398,-0.005577016456958472,0.08796353936254481,-0.0011176435355957426,0.011056526888414948,-0.02691628975494132,0.0662501620383382,-0.042880587692468934,0.04141481560238033,0.044130933322393456,-0.042871951972594226,-0.004801109234758546,0.015209317016709054,-0.14080728466359904,0.050592280599518646,-0.016344211158287613,-0.018991178529245898,0.0005273108076340714,0.13741042501996267,-0.008114848914448894,-0.02276531697085986,-0.020434072635480208,0.02483199631994124,-0.009819122540064958,-0.041065240543627674,-0.08612601066091394,-0.08748619099616221,-0.0005990570596512026,0.015657124378614665,-0.01745526437074798,0.010533817211503831,0.06432911351779909,-0.0380752879117448,0.0009047143565152304,0.014998002472199916,-0.05813582645561588,-0.01836099721081516,0.005983579512182819,0.01592171644747889,0.07951357656661473,0.022051804426059578,0.09567506683649557,0.0005999601233331669,0.026112280121241987,0.0590041377420056,-0.06665564526017337,0.043098360123825896,0.006079428257405983,0.013964541400039726,-0.011912604992888778,-0.049699521634617105,-0.014443212775976875,0.011537019314394641,0.047220415290180645,-0.005333692586897366,0.06795675015455573,0.04040861347446437,0.05847828703451594,-0.06937768764366398,-0.058287897533689854,-0.10459694375648301,-0.12367722181208918,0.022298256633733197,-0.064509674130479,0.13478861352930915,-0.07602627151467958,-0.013436339497762727,0.05571296162286799,0.05238009104204605,0.06465242964554614,0.009422154354486642,-0.057051507053100504,-0.025155221880366625,-0.029718378554351128,0.12137502460979899,0.07386364386701859,0.019158669738571606,0.06592437129048748,0.020545337478794383,0.0075378138536989206,-0.004206551213651953,-0.02361094395675995,0.067751298242942,-0.03034627589526916,0.060010650102513656,0.0010183425956645884,-0.05231283990264394,-0.018488156847606307,-0.14022375406689552,-0.07525009215212847,-0.1455310129202472,-0.022498894817894965,-0.09231170128980509,0.002508648147670476,-0.06918476821055082,-0.1906235310243353,-0.1944663483480986,-0.03611989099763997,0.0614638946663625,0.1467194676651404,0.0630931408097588,-0.031114244077182114,0.04356580486911073,0.03909974674716965,0.14362622367092984,0.0074873306051513756,0.0237428053999746,0.0005261772671029092,-0.0859138466754472,0.03726678686807495,-0.034618078869116574,0.06017983411883235,0.005810836560618346,-0.02304488159617969,-0.07222746052660814,-0.025875688768001236,-0.05739491810793036,-0.12018096213942825,-0.1098570930679006,-0.152028660430995,-0.07263114004069612,0.012111140069401912,-0.004822914031617684,0.01557414929833806,0.06808490857685205,0.18739557005550672,0.17751113800684368,0.06980287502158702,0.1506716546564912,0.10744926924963848,0.009399241418678022,0.036395298548114116,0.03269884369608023,0.002784034702425507,-0.029481850156492715,-0.10908232443315503,-0.023725461073950703,-0.017062649621077838,0.054547195214881716,-0.04562980608582315,-0.06731672818336325,-0.0643809153460447,-0.05756645782874617,-0.024552702090249803,-0.12611451165265228,-0.051851369542820165,-0.10841034357189537,-0.028197435576776626,0.13308786048591076,0.06544010422401768,0.1882739742122307,0.3909261069207664,0.29429211294947133,0.2573577066153732,0.3221620844237526,0.24454902488487343,0.1587078907481933,-0.0015367627601628356,-0.06544585132979758,0.00018925428426075383,-0.06823751252673275,0.1154889449254944,0.08749668779458973,0.006139816899095893,-0.021184265259577444,0.014356770747387613,-0.04964150659106018,-0.012302662316588836,0.01649726219212538,-0.13766272710999353,-0.016853822568666778,-0.09120874367683382,-0.05147272275190562,0.0493476510227748,0.12086733775891799,0.09154246885716998,0.14804461429192298,0.05013075454281547,0.07775552961989834,0.19573152868528418,0.214261019598537,0.106231401444376,0.09305729295272298,0.06394306577770617,0.040465135408445034,0.031031425464738,-0.02517833716447742,-0.06908322777099463,-0.08705060204851371,-0.12506851040154263,0.03302509286525876,0.0007441948372644483,0.01459526773417413,-0.025779301121484924,0.029741734170009707,-0.07797090846195266,-0.0693771322289855,-0.0727259185015486,-0.09627375362247208,-0.01938822118627169,0.04004002731084123,0.06640932776909786,-0.007890527307614102,0.0641072663833589,0.008545282445271595,-0.0029137900987698754,-0.09198277063724693,-0.24773041187914444,-0.24648754642889661,-0.2143528039338206,-0.21192732748067528,-0.09850150457568377,0.04450051416489237,-0.045367783542978796,-0.04992395365993701,-0.039075584558112116,0.001904213642547831,0.015905695214479914,0.07277261355581376,-0.010983673886527854,-0.0591545313415064,0.08980358025161048,-0.0709526016627107,-0.0635618110840107,-0.01136569163297027,0.0014167116133663733,0.0008524113036074933,-0.1337313846353092,-0.04253720424545416,0.10435428647259977,0.010062783026726791,0.11694514482481634,0.014232322519087707,0.07395069837635944,-0.17169295383298028,-0.14143422704765213,-0.38993666094969126,-0.38754346520342453,-0.10505178742096635,-0.0710107111739225,0.03393655081321757,-0.034102250406924425,0.07172340752527559,0.052243138985450965,0.056080277344897345,0.0567914191295455,0.0791035999623847,0.01987049132066411,0.012294646344509866,-0.03999009778600393,0.05314964633102842,0.06679935336826358,-0.05852370906567865,0.061217347017211744,0.07071201692198602,-0.07784493106368985,-0.03502380973240815,0.023131520466411138,0.04852637101378826,0.010102194657908915,-0.03678291198124435,0.051150712946750505,0.010331937963676313,-0.09527869948126594,-0.06455813902237889,-0.0911477313042322,-0.04573759876827031,-0.042651112826981114,0.0898484520861819,-0.05301539189210508,-0.02308114014439912,-0.021972570273357483,0.06444327813235641,0.0958349674973378,0.007360253132105945,0.06384953776495315,-0.020028601944999974,0.013668731173245411,-0.0354588434810876,0.02184215823316433,0.037642631112384896,0.07184492665897955,0.05393376987953124,-0.018649440421453202,-0.09095782278589946,0.048038982824451765,0.03182872055624955,0.013300701985623727,0.024785829169922,0.05412368498939515,0.05794208757633088,0.17303121425755624,-0.05262212886534066,0.0018592852084909016,0.04239785405849491,-0.06408987547682116,-0.02680648958425409,0.012329148412715894,-0.02854182342656987,-0.07936397805341498,-0.09088463308176613,0.03795890886278945,-0.041499193902207916,0.03160066204145211,-0.04263841154348946,-0.033763867110346776,0.0026678409812375434,0.01445097292123662,0.010165040931003965,0.021201282795961916,-0.02552559425229759,-0.053035347002465864,-0.1488859432277124,-0.10633648757648435,0.09163352219270185,-0.047085581951576375,-0.01657162833314135,-0.02374504522919667,0.11501076461268171,0.11985540373594473,0.1272600803689489,0.05613384335753633,-0.11274557166712544,-0.05658299698575075,-0.02886033405491711,-0.05200250445405324,0.029932709970663468,-0.0523149367335064,-0.0066878472960111915,-0.005151082372326078,0.0012636979367502588,0.0567728532272775,0.0000982782621946502,0.030630835012283156,-0.03181064592610222,0.01811946438585802,0.033663587275236155,-0.002523937989452992,-0.058460614892945094,-0.01096302347100643,-0.10344641669575387,-0.06867155257583406,-0.012732279324273779,-0.04211207083727642,-0.07637924696750066,-0.08607570560310313,0.14925118617228916,0.142917739002061,0.04877080327581129,-0.010038579896642027,-0.08217029051382894,-0.1492293728031489,-0.02548038723571935,-0.04976688898133528,-0.02058554956142611,-0.08453180120316411,0.03418317947071834,-0.09561203118995411,-0.04901682686248506,-0.03543597067496689,0.014312506620515544,-0.07477125884254043,0.021757658667353703,-0.06196356330238582,-0.03674501971394602,0.005947155970064602,0.04532687784820476,-0.047615293777287966,0.08637975581978156,-0.12905757631349044,-0.09960743693883699,-0.02720733727037662,-0.057527632297928566,-0.026783105643670597,0.09114168340563945,-0.11679402881198792,-0.028269383860617576,0.1026208948508986,0.021045054842395668,-0.11039175255686902,-0.08084967527452731,-0.07864310231749083,-0.07557620897832328,-0.12002457858437693,-0.006312729082990684,-0.03648167423964179,0.02000173816983859,-0.031872384727311444,-0.01396356436299481,0.06127720665462727,0.07756227561245861,-0.06056903413815621,0.043754745691795334,0.028728222687942583,-0.0008686866589745039,-0.018805963820940096,0.01681704168527042,0.03633234890291297,0.11205432135019075,0.10948045734551463,-0.05693960224733041,-0.02118064778226513,-0.026971408007690705,-0.07999408951145683,0.08577918549695535,0.07252914022659616,-0.058562083946512675,-0.06927371480554259,-0.02955433337496255,-0.19129559187305326,-0.0504580976106596,-0.0014407959747395995,0.025662026713192558,-0.11514906376381141,-0.0029717567024437836,0.003968716142061883,-0.012353010008644189,0.05213350432008736,0.003138632840701325,0.06603988943039091,-0.0859858080491156,-0.060851915814777835,-0.06450388585091243,-0.031325471630713336,-0.10180074849028013,-0.11422829071153347,0.018038493298929502,0.10046123888327262,-0.027902783611217154,-0.02582784810166561,-0.05784529292436417,0.0633923636691535,-0.06402834655239872,0.0671950383894254,-0.03311568230367537,-0.06495496796811567,-0.11026763734721143,-0.07254387019681534,-0.030328450897826025,-0.06953315579183493,-0.03148299867155542,-0.14839546103391338,0.011133220405890201,-0.0015511331646065089,0.08193877046088173,0.024008704230837292,-0.042908696624771044,-0.11799462573098474,-0.035937726790656,-0.07371344493425576,-0.02480921231469473,0.05386486473385996,0.10381884139502748,0.0359717121669112,-0.030895866159484933,-0.09135002556633161,-0.08375863394709256,-0.1331007035868755,-0.13954184429439406,0.016015751582029728,0.09221886214316456,0.12097191557528751,0.08992405948587455,-0.10380871749646474,-0.1511761421302823,-0.1134163142711896,-0.00033665467718580627,-0.0347937824968475,0.03558960202977703,-0.09187638329695096,0.0010403557664790612,0.008202931435816605,0.08510953805723064,-0.041026064025653175,0.008142907177833026,-0.027715253562375766,0.03519933586007109,0.006734578197398953,0.007105568378407666,0.03000731609268134,0.08968689692032901,-0.002278817024707087,-0.14088694281027683,-0.12518004999773114,-0.17114139125145866,-0.08682607535869143,0.02673497454209258,0.028313008875725215,0.025323054042837464,0.09108801987024903,0.01230109630515357,-0.005238545854474719,-0.032501832637502184,-0.029428258431174633,0.012557479528879728,-0.0400825112626643,-0.09158586295875251,-0.043027220018448616,-0.07022838290055958,-0.09122675365351744,0.10733913222532661,-0.1078745975638937,-0.07406810600506618,-0.06393858052760074,0.018741933438268528,-0.04594405050659725,-0.1646405986540649,0.0409934400692819,0.1300154827745297,-0.045585943161859065,-0.019421938585489452,-0.05509324851767069,-0.05349169739971849,-0.07729047214349782,-0.016158178861770362,0.06886611596900569,-0.0776866954510899,0.08506993279153588,0.05596377114024237,-0.006706954992406938,-0.12437153666855555,0.022777318142015165,0.0522426164842409,0.0005947938727228341,0.06334851423154444,0.015020014031285483,-0.027557981594816136,0.10655842064645277,-0.03186209973645888,-0.08385923355304178,-0.0325676093663222,0.005839822326140162,-0.011442610848868912,-0.017624646750334146,0.013396104635498495,-0.07027495262678198,-0.024651798376179757,0.07316766310012458,-0.04007107482895486,-0.09882671050790415,-0.07012616880481479,0.03576601148199637,0.028267921760678574,-0.06730519872384562,-0.16642577322726415,0.015706305272906694,0.0685785529700709,-0.0773673107482196,-0.11292960327259775,-0.024415375856382978,0.027969403856218558,-0.09555764098437151,-0.014621346282186908,-0.005878519834330417,0.04620427505437685,-0.014932958441283575,-0.0205329849745403,0.05022809633887248,0.06557050023622879,0.019091267072991164,-0.015495788244889373,-0.024776643912498755,0.001429454809529842,0.027040114813170785,-0.07948137426971748,0.049130822484200955,0.08479225067513958,0.13163632130930478,0.12189788104061362,-0.029670526824259837,0.01960865939537925,-0.12532352105352856,-0.182292702129884,-0.07110576894972866,-0.11675150467829533,-0.08503191595350124,-0.10167839131431154,-0.024964297508259174,-0.013932864814806765,-0.03775790626978069,0.02967382191845901,0.10276769851345058,0.01627689640527284,0.02313243206801397,0.027844633209698932,-0.07810626717309609,0.043846861910035506,0.031818162347510365,0.024172729522256353,0.035627575182402046,-0.024556204806845512,0.07319154339796416,0.01988255859807829,-0.10459830865156475,-0.06699373769100724,0.05215375951597928,0.053050898714092756,-0.02426253257228632,-0.051668940217766225,-0.04438425738009304,0.0009321148305797394,-0.004700696571706478,-0.08538709005422343,-0.0947847779194042,-0.04319919801090783,0.05010454197677058,-0.021020159038054247,0.026872080059731407,-0.0901522476661593,0.03685798859726665,0.039477400168105144,-0.03421576937982089,-0.02382025609450766,-0.01497674540049145,-0.025877369781068485,0.006316137324740505,-0.04555867297079494,0.03096044673333434,0.013983412562773813,-0.00020616153987879958,0.10543237491920364,0.061059026752729215,0.05382919589612516,-0.027070785385146838,0.042844253731477815,0.0776407869334847,-0.07629630519341263,0.03693983542197562,0.05371166804883023,-0.01570202150183996,-0.05978654516913118,-0.030570262872269296,0.008908139757890775,-0.019894938216570977,0.03576819830696421,0.07303591353630134,-0.01865516806731763,0.005000595367356068,-0.0020420594204088646,-0.08360487047648404,-0.052337287572963145,0.09137034314470245,0.06293964246373861,0.005076911617260727,0.029265540687413685,0.013252485244687806,0.04400244428816053,0.05395227874657834,0.09337609308926376,0.07438074871195151,-0.0011670223488310287,0.11249108362033848,0.08349775192465264,0.1038083966862952,0.06728132045802317,0.15346868421853938,0.10979275157687572,0.15301557851452,0.07711133041303085,0.11496200183166931,-0.08945891368549247,0.11941047704252661,0.029551415284721595,0.02714910663912873,-0.013371755132639928,-0.07871994531251893,-0.012375892200276583,-0.14477678096066343,0.040224882070114126,0.042269691495369854,0.024137178250425606,-0.014205421930306937,-0.04180186717993876,-0.020147489441579524,-0.006265000748466324,0.05438921501224278,0.02487193862032902,0.07734308670894416,0.2025995466424635,0.18877335066531972,0.10625521677270218,0.03960076743271549,0.12476947472991815,0.05770841591218244,0.1620871932214522,-0.013839381151357279,0.01998118209329337,0.10809258075768552,0.10136149099608115,-0.0517703574206713,-0.05273509767710818,0.0037430991977164918,-0.04670549571820725,0.03885412083680192,-0.02537158521774282,-0.058329220408086996,0.022484887567815613,-0.1137074348797467,-0.03928813757446478,0.02731077148697843,0.019565479581450048,-0.02063594053690645,0.028591649714731566,-0.014362128303901718,0.0009686544073760903,-0.09181833975135162,-0.0735675132254771,0.07028646901073893,0.06498661753465679,0.17597599162703045,0.03600323773323254,0.021444451519085868,0.021108490200987703,0.013021364823073287,-0.033266042780765066,-0.019496504302577138,-0.07871631892959885,-0.013461698758141521,0.03449622143053947,-0.02096710238032081,-0.024220544831269553,-0.03293402719413418,0.06801682953942131,-0.02651604684999701],[0.1527070718782424,0.06442213500077168,-0.03698375065127116,-0.0007261359635674059,0.024923463080194646,0.08087295567176889,0.0038125018992230903,0.0020853549890889273,-0.044327200492214995,-0.024144906359803906,-0.053488716840691744,-0.048037325987267274,-0.056338069611793,-0.006755031273582926,-0.03569649299544506,-0.03411841914100467,-0.007421066858330602,0.08277271793273534,-0.06058483059208398,-0.04261227831044125,-0.024337478090726186,-0.006026694265001091,0.044646515238404516,0.0377168017208191,0.06991271363232641,0.01341913002912077,-0.01548465760626709,0.028899479353345626,-0.005735099087785863,-0.03185292271671814,0.04038641647059193,-0.02264860079804215,-0.0147294017526811,-0.008043007351015577,-0.09060939723833907,-0.08709117357315561,0.013591806833159697,-0.012632267643233852,0.02333297622882412,-0.07354419532540618,0.06994387898447184,0.06684423620218885,-0.12288417478682956,0.0041424650089365725,-0.012680017435072317,0.07535562503227862,0.009056870869803248,-0.018470997775629636,0.01641174004744007,0.0036138954394172593,-0.0054604359685937135,-0.002483055298624944,-0.04464935591313545,-0.04450771392807874,0.07377017763796943,0.0073806717562044195,0.002396113171677689,0.04706339606914832,-0.0910613163473158,0.02874541541885524,0.06587864871190803,0.07328684664092672,-0.07475485205083159,0.06225348909066493,0.06745960363274342,-0.016552287119766525,-0.1352870500654103,0.010777629812747292,0.12240771644438661,0.07068941335500094,-0.03442465859178358,0.034922320075764124,-0.07199295504857829,0.00006369482409525873,-0.008031753741646499,-0.005816428003923747,-0.015108472548616293,0.09426051313102725,0.01686667666028584,0.07275648675704624,0.02673720281181298,-0.04715879861754952,0.007946512830715036,-0.035355350090661576,0.026191911179034764,0.02375956038255666,-0.11266038845973471,-0.035458062637757935,-0.021859623724561947,0.07974872559988896,0.005273731328031753,-0.10576813384772486,0.04365062755811609,-0.06249487828348466,-0.0225079374852881,0.06875525295341164,-0.00032792068187897835,0.033399653628261035,-0.021294611147720285,-0.15306611998242298,0.020119072982714873,-0.00559345110884389,-0.05110669821436376,-0.09629590337097177,-0.05335329996607561,-0.05777891147670481,0.043399864907390506,0.03655260630390421,0.011925018516077825,0.10627960084455937,-0.019304524244807837,0.0025905848336060617,-0.005799274002927387,-0.031208967326301813,0.03120769162409572,0.03664892916313192,0.0032146881592535538,-0.01737350169240423,-0.046757813981091634,-0.02914461281337573,-0.06396019292938908,0.04472482539081336,0.05244838657838377,0.006626908680397598,0.06469091172499693,0.13530483626560794,0.011807483266103043,-0.036868682064502625,-0.17106284073448114,-0.20261153377987973,-0.12654495747357378,-0.09477154497891062,0.008767034145298443,-0.046039113378468347,-0.06938838013921278,-0.1381503231667602,-0.04591810830349876,-0.10880551497439866,0.05984671280600018,0.0776226372009106,0.05496486305324045,0.004057230824762076,-0.02662253956645967,0.021077727405326544,-0.02376015714978532,0.07930385249517119,0.01850460252621586,-0.07103163480111752,0.051410780265092576,0.04115215768303964,0.04171873475330551,0.07857916508974222,0.08168509313993776,0.0817219390040108,0.0858755899943648,0.0035331034806996777,-0.019093601253165355,-0.1767041973575725,-0.02930808667187781,-0.07596153032197746,-0.10241279469751492,-0.1413041841302712,-0.17331482604401005,-0.08585112639283063,0.018633907201015903,0.005479531069875948,-0.02482660026165883,0.042284992986755636,-0.08007738675611312,-0.05726453995377387,-0.0049213726941922924,-0.03435471080493326,0.10786916432737904,0.03754453583866063,0.07101911366306526,-0.009362466166792992,0.05094581906323259,0.11576709559286527,0.12523159834111547,0.14616608765975914,0.1615247913477102,0.0982432635477115,0.09873631662321304,0.08662427734183484,0.08573633158948245,0.1192712167463376,-0.16450250428902757,-0.13517371573998554,-0.08855791611847924,-0.10097054284386817,-0.026250454030262653,-0.061055324443792094,0.07165049443052117,-0.007026361956057451,-0.08140709697511801,0.0663107759083001,-0.05010063995044446,-0.018610028082005806,-0.03154849171201155,-0.05796164025349098,-0.011295931948275927,-0.08985668148363601,0.06679196180387566,0.04820249169441243,0.032847542944403986,0.1330911020106075,-0.05346338249030241,0.01319042075814219,-0.00046401952064706076,0.08312632355719045,0.12229594805393383,0.21626353584822192,0.05506857763226583,-0.06684410270818145,-0.03585728436012021,-0.20739212189742975,-0.11877493237509222,-0.0486324340733014,-0.0060166627374513525,-0.048360728438077503,-0.04619045923995993,-0.00307936409248507,-0.01741161229447343,0.0036223191495429676,0.045960736044413,0.006432512102096694,0.025940573133040806,0.07311424036906845,-0.05626733578361569,0.03231835783740652,0.03237669983623657,0.02093279133014658,0.13791332772101605,-0.010601146740317433,-0.14884315648078836,-0.11792840198408096,-0.14627694746681874,-0.018847904954454844,0.19499669896827163,0.12050481739119458,0.027540911079330675,0.045567899622298756,0.014536921968710812,-0.11335023722451006,-0.1488403320707163,-0.14396627623179403,-0.05592919773256298,-0.08998251797777791,0.02667111319125569,-0.01584210672852605,-0.013936358725231697,0.025415690060553407,0.04526429918849063,-0.004075820376648805,0.049872801463891316,-0.09984553613890437,-0.04176886118736555,-0.04734458938375955,0.009834508695627905,0.001206044602497985,-0.022760520379615616,-0.041703814179089756,-0.021809999038818313,-0.17526477662210493,-0.049850350450867074,0.12249208899189135,-0.07498104006867574,0.06973801593052331,0.05082275619947823,-0.03798106164265433,0.20027163147285115,-0.035396942706563544,-0.1955627908010739,-0.06476860371077527,-0.054017539099310695,-0.14069139815310855,-0.05609883755802298,0.03677555802117552,0.006236949905409008,-0.03307126222092862,0.01890350262018494,-0.00944552666758831,0.012976380695574573,0.05899088708596124,0.061624943748778,-0.0569772795284864,-0.05408350692463538,0.02537161466459596,-0.08196992760704568,-0.08340912808600703,-0.03347725289209642,0.07046064669609496,-0.07391595315077779,-0.003212379617208493,-0.006606520885589637,0.04319330893016899,0.041046456578798025,0.15797540487867884,0.09295205345504678,0.02497243321646248,-0.13554547028445135,0.01751436321410931,0.013816588062540823,-0.013651347091489815,-0.06650301342697598,-0.05027801216923831,0.03505928081422913,0.04733760657257129,-0.04084898447929088,-0.011651723604395457,-0.06889142723305401,-0.04590548014846329,0.077434779230192,-0.03069620748614507,0.058065405147943665,0.10226380189494358,-0.07253294279517673,-0.0581548494173251,-0.12319065512337356,0.06846740786354173,0.05820039712528931,-0.0894710269173407,0.00784491026268363,0.06788611400976886,-0.02395730084586156,0.2657614491937663,0.20254992771591265,0.08180956773954477,-0.10420996784258361,-0.06168195655274606,-0.008452550841930442,-0.08802721574803124,-0.013703126603543236,-0.012953954133314429,-0.017065130823522,0.047364281807802,0.018344590260593787,0.014318824034256761,0.031505475984873486,0.03523605869601554,-0.04364459284847526,-0.04016955137649927,-0.015852894979115996,0.1125543124748625,-0.08107688885936518,-0.10035056117955254,-0.03643095506003975,-0.04000109280870166,-0.012840202080091435,-0.23354551968323278,-0.06279692223984408,0.02569823566747113,0.12322082229993803,0.23440300757061383,0.07724684736363749,-0.042975888450561016,-0.13898024822662408,-0.061077846316730036,0.07933465846965633,-0.0003311189363714309,-0.022182879108914,0.0021292883495665892,0.008295783791434076,-0.05850752923135612,-0.06913209034523002,0.0010306177890801798,-0.021968351951491546,0.042920284272841225,-0.01912816733711881,-0.09895793233795791,-0.12863525305793455,-0.03351173719790893,0.022744304798296224,0.0058884236187444665,-0.001943860428105277,-0.01971531792182129,0.024973178180760176,-0.14082362062984008,-0.16012285170747034,-0.03747501713782533,0.05289518537421436,0.16681781497171266,0.08588195071746921,-0.028696804128550968,-0.06226579386024118,-0.10667396167759352,-0.039213949414959856,0.05187664424286211,0.06007988451470768,0.041096685790499764,0.01739496260999404,0.0674904488253677,0.03517721428326154,0.029540008362391908,0.00611855900273661,0.022793146374729557,-0.0064751189866416314,-0.05941159617844388,-0.05604336949565032,-0.03389280556265783,-0.07581381288398277,-0.05211526654602221,-0.03138771563838762,0.00023949948299360494,-0.04325962858584278,-0.14763555017158803,-0.15626342236957594,0.049441111478830964,0.039619168263635825,-0.030764430570742983,0.06283776840769942,0.0708795140367252,-0.11411841232972364,0.009258601355727654,-0.01790606980073719,-0.061755452384575124,0.06462192174927024,0.011464069960558402,0.05554824166274328,-0.049074479725271326,-0.060379464902604305,-0.03517073042792979,0.018254720198776282,0.007001485950037528,-0.0364779404439164,-0.06343850131744033,-0.12102545133044888,-0.09633426038574054,-0.04228149719341721,0.11556566911881067,0.0605680502377276,-0.044992167376177075,-0.015276906446528208,-0.16428475318351107,-0.12020036623532782,0.014498729602997076,0.1480200014631313,0.14421108085913698,0.0698059986533453,-0.050653938361385646,-0.12707047820546524,-0.070853082987962,-0.052185515383415274,0.07039289167145978,0.03315750615040265,0.10752929405426011,-0.009134876480314729,0.001945517958531944,-0.007971096688809663,0.01592723856926346,-0.0939692902963542,0.04062668163836186,-0.012903196542633803,-0.057633920883403515,-0.13617663153864767,-0.09838040174059201,-0.04462266233002339,-0.07346097855322821,-0.03975889530567792,0.04545133341319552,-0.053292532354489386,-0.08441999479837116,-0.11658440365522627,-0.051359611402588295,0.002689082519316762,0.039784909362940386,-0.11117512264710701,-0.10611136612817834,0.07817137276297276,-0.06278175592148401,-0.086504061912516,-0.006962045206476626,-0.083594428898358,-0.09544663398561899,0.028594171594660097,-0.04212324672850177,0.011890534530511419,-0.03592378088750123,0.07252109085106928,0.004388989550560367,-0.07324249122426386,0.01089708175976836,-0.07414005617006864,-0.15696595272447633,-0.11101778537249822,-0.10547791998867581,0.0029832779891468156,0.034552359111877665,0.009845310431533142,-0.16804974891937133,-0.15483671558031792,-0.026986310719775784,0.010722528861722015,0.0005528480943386766,-0.01949791587372259,-0.12781077814856093,-0.07478633071552453,-0.012668176258945497,-0.12727170497776033,-0.05588093580974532,-0.016431105939823654,-0.015619526447326452,0.01435904678051962,0.020220972537187912,0.04680293321328771,-0.019935067598492492,-0.008425818807128616,0.04715580235097231,0.08983256851477628,-0.07145963610293286,-0.0456699839124719,-0.14593199448248775,-0.09630335089918575,0.007440627631425719,0.08606927409071756,0.055210124330979896,0.03288295236574583,-0.0115693702602385,-0.08816295460918491,0.09611686623722941,-0.0501521381846308,-0.04576202453806692,0.05678859980238723,-0.030791547786472417,-0.12865192935627395,-0.11145190182072993,0.07702243199676623,-0.011386623369575547,0.017350541112950275,0.0019387754425514415,-0.009600763938258282,-0.005059715562415683,0.08331679984483197,0.018781468342616542,0.0590053075406,-0.0407316221078917,-0.035004569120052065,-0.05459340473283874,-0.07876862144914408,-0.13002439352435924,0.008784531892306961,0.0421584112415125,0.06214739222539255,-0.010964059392506201,0.11220036780556907,0.012576294527286914,-0.07098472162175345,-0.07790491222345644,-0.016326076224410624,-0.09548163106847364,-0.026918167534406266,0.06274473708486916,-0.060778737040235,-0.038959757860305366,0.006422154074062631,-0.03999411706550659,-0.07833740866945102,0.032506768901535484,-0.016805591526852605,-0.07582140742361983,-0.028332643065584754,-0.05252901813818184,0.011668133882553444,-0.017461227867085177,0.008538319024739935,-0.04104723500077246,0.01146403643700895,-0.1148868288397286,0.02335420896865789,0.05691706954687714,0.09014190655038856,0.048081249951118926,0.0808068714012514,0.15113390622892153,-0.004905100528653549,-0.00484085869012462,-0.13237874590826004,-0.024718491593385974,-0.09651825506071221,0.024675132103006633,-0.027783363420750485,-0.04585846189375856,-0.013950145906126891,-0.07902886243204459,0.04717130976084082,0.01851076681905436,0.04959450073764241,0.07676413334296309,0.031603106281477146,-0.005238103275960686,0.011546004630258384,-0.009813710398563926,0.053713294307004014,-0.07308565064556702,-0.04679802217488197,-0.16327768090640393,-0.07978671275098691,-0.01213963627754152,0.08289163254279568,-0.03405841834821792,0.1676169091351359,0.1942363636740711,0.009922362891382378,0.07718882936406517,0.057735145136257826,0.02266262125471147,-0.035459189566910215,0.020727696233540652,-0.07091563556029808,-0.0458274015535379,-0.07564794037797495,-0.017237574505384823,0.08898541425043927,-0.029839614496545045,0.05301498557166156,0.006364365949083501,-0.04287177141775009,0.014476782832566745,-0.011910695775769052,-0.02144890026023627,-0.10735981449136983,-0.04398430767456059,-0.10154193414671674,-0.017436867058831164,-0.020308258659801442,0.003880847449312384,-0.041924183275688046,-0.027660465331264504,0.03196153631306054,0.062050664403119064,0.246070540592328,0.11430648887579722,0.06743543370547078,0.0656338605813992,0.06427616699607701,0.004593670138516711,-0.05323524247021858,-0.06418025820164723,0.09141849341741379,0.08135295481096416,-0.022813262723092583,0.012310262364445476,-0.07960429545338285,0.014867551034105522,0.03375150748101827,-0.03121163618639654,-0.02585903354487542,0.002117829634062212,0.009686146971957816,-0.02992676949040913,-0.025961374945092888,-0.08655585768234934,-0.05106837608668056,-0.010664836453825067,-0.1110128063609199,0.017607222456408594,0.006092362656557763,0.05158417849277429,0.0486894723835871,0.0007852653421934824,-0.10978433232049924,0.02436193983582055,-0.07555375663773559,0.03983529491820452,0.12514953760353117,0.06699236377239266,0.007002631503598322,0.01646147564890135,-0.006761409698499977,0.031135498298891555,0.01577972286488084,0.05147767382590982,-0.01785189447801234,0.015389840724742894,0.025737797579985747,-0.047719523139988264,-0.08167158189575856,0.00911955281963596,-0.05344933802474259,-0.01966440583977951,-0.010639973763216263,-0.04284185598473582,-0.22078067472450927,-0.03531910440289425,-0.026362523893755076,0.10260855293888152,0.0512959305143187,0.11034169751020698,0.04759896691213805,0.0703082155083789,-0.0308375433085429,0.04783835845167731,-0.07452579160309625,0.039004891500908606,0.018869664281876673,-0.08939044578394723,0.012488798430005586,0.048186988276933164,0.026509949100079637,-0.06969740122268703,-0.037305414461643906,-0.05511075932542593,-0.010291007292632343,0.08177515780795275,-0.08418942875220731,0.040479574126680525,0.10253696537219475,-0.07436812954915309,-0.030196292009081204,-0.115985548639037,-0.04073110340439722,-0.05210553226650197,0.15905225381095953,0.017805803331462238,0.08285248753161976,0.07285414296218565,-0.05423092154214036,-0.017619344954498385,0.03700698475242979,-0.011880225277124002,0.03365262609066966,-0.021862393704753513,0.05879075582899622,0.000009372812487656177,-0.07976565408788064,-0.0864655147694532,-0.07667745813681118,0.055244314145476245,0.05453070453661458,-0.0306458255988966,0.017030218181837385,0.041755995946249486,-0.017351544189397196,0.06332842311038017,-0.004195826347136128,-0.07697564789942049,0.018926005339698574,0.001787524456229123,0.10309210480449252,-0.012707695414688878,0.06631816564971241,0.034009121838537576,0.10719950303989563,0.0577327598164365,0.09820072319368184,0.007613066597456921,-0.056082767568872656,-0.10121277634309768,0.04239571459736621,-0.03675611185195117,0.014865455223287721,-0.04637284176998239,-0.02047786783650282,-0.006486877434380181,0.043858412852171326,-0.06741270868566274,-0.015490785876499203,-0.007496461820314849,0.05565431766321442,0.038378898439996645,-0.06433755354791278,-0.020835763887817316,-0.012247062560437852,0.020844380519875482,-0.01343744248590967,-0.01760492865524039,-0.00919357591523014,-0.08239225214623717,0.02692628096610961,0.040543243367848786,0.08199363269902725,0.007046029910543782,0.07014038793225177,-0.06371717330918779,0.04425890888295202,0.05429884657304887,-0.09325908316344468,-0.07649109073010919,-0.027553854062968054,0.07416578391227537,0.050564033521429394,-0.04611875353809682,-0.05388707326091902,0.0821857867622922],[0.039834004614665054,-0.0029041483659473567,0.004909146003481421,-0.055102413658835475,-0.01857097132676335,0.046422918714786925,0.0033571226450418985,0.018761285778564167,0.020461144908206396,-0.0947364463601438,0.04467527493042578,-0.0009117514832487442,0.030592051373296063,-0.06287358770484293,0.0631375879887194,-0.06025576232326611,-0.014419913771174537,0.059358795794983085,-0.06141487052054397,0.03174987396437356,0.01337244891819519,-0.0021207690026367352,-0.013157193443027617,-0.04746299822922506,0.05115955837717911,-0.06341175949078223,0.012753805524789979,0.010644774537190869,-0.051248862911417704,-0.05033630294832359,0.12841870030511246,0.05338789544987429,0.09918388198734605,0.0018267883890891875,0.027715201560242934,0.02943701289333561,-0.03498074230553288,-0.11870884636487786,-0.008484274926433227,0.019624323539685004,-0.015852839105938037,-0.02100187378330258,0.04757663805039885,0.027751147979484136,-0.007765330545576265,0.050132627772515675,-0.002569502172640107,-0.06030201048447577,0.010728124520198478,-0.12051992543120302,-0.003725010730978389,-0.013552482567478315,-0.015267937509434119,0.06339113600466544,-0.0376240635321255,0.045066479472627964,-0.07796435361439302,0.012452327986899568,-0.056229706186501756,0.0468505683127259,-0.05083430348234934,-0.03150398767866319,-0.026737955210003748,0.02189090678672788,0.07487862036622839,0.01691120498703164,0.13453106534632234,0.008518864843686517,0.05453569375873856,0.05470317836229752,0.02259854793849187,-0.04577243518465208,0.0010289604525444821,0.10006888017706858,0.1142197319006287,0.004100144339972686,0.009816628500357347,0.014014973993302239,0.032196464587767606,0.09089752807904006,-0.004701375044206805,-0.019038755202274077,-0.04940772997433301,-0.015522867477890502,-0.007256501370321004,0.06727398796860756,0.06253491649235846,0.0531798972461817,-0.03473687873013356,0.07740085123641986,0.11322486740608548,0.003204701050356875,-0.028082031460129876,-0.058580198999327156,-0.0700764881064903,-0.0824664305009699,-0.05891267391904723,-0.06611830154264067,0.0028048977409634683,0.020898176066083865,0.01265322875247748,-0.012607142506026962,0.09719551821412668,0.03416308836945871,0.043867768016988606,0.03080130720957988,-0.036938771449397514,0.07404957365581744,-0.08537580915865191,-0.028008486850882044,0.023121993170422055,0.03464199557003816,0.0638374916331822,-0.063685609125684,0.013104947893990948,0.0045274556152723675,0.02362263472683765,-0.00020352413912218053,0.018053710017693975,0.02243978940151768,-0.046061834581329016,0.006536552946656202,0.016762989922389036,-0.10656057272444935,-0.11337304489657761,-0.15944378475948393,-0.14536993109516552,-0.023214952906121755,-0.05827901013760599,-0.052135124170206736,-0.0605394395318637,-0.01220536059075002,0.0638757869131404,0.11353305510012271,0.06299674363769744,-0.016367298083688017,-0.02248530725566924,-0.00004328056370754554,-0.045686968112599424,-0.08458444749435995,-0.029478857292050208,0.01239893525387691,-0.041741204350242665,-0.007970427662818653,-0.06243783854109233,-0.03092200154783012,0.05104296242570578,0.06176099151274466,0.044785011513170894,0.016737167183615485,-0.13804291452278117,-0.0840629423956431,0.0014581897504127497,-0.043262927576020176,-0.08106679739886287,-0.04178521340462508,0.09198790422035288,0.07661907980289571,0.026847730320475063,0.056659755620264575,0.042874283350288464,0.056205838894194914,0.052977015174957995,0.1010989507063332,0.06996168339325605,-0.07048889642476446,-0.04228878074384206,-0.07162996229949559,0.014499191400212295,0.05289370987060255,-0.01587218690348726,0.008564409815525535,-0.021176897559003937,-0.06458654023035283,-0.01636960818527653,0.10594550609386032,-0.03330168528689272,0.13215604923873064,-0.08040332151580815,0.006078079094398674,-0.0034129233878544673,0.023458543348666788,0.006960999408534649,0.0369180803905873,0.01573309918808352,0.07393564200394727,-0.007420856026187015,0.13514686087572203,0.08784586409268536,-0.03521753007380375,-0.04558980192889376,0.02362316280264754,0.0819056416825857,-0.03839170027473231,0.02303031345060372,-0.08205095718089957,-0.01891851342832727,-0.09554479592759363,-0.08579946169356462,0.03092471827178538,0.03661401290447216,0.07368587144603218,0.027266942060847822,0.05238190272904327,0.09255168314373763,0.09576903431925682,-0.011125859911283795,-0.05374909043328974,-0.00332595038886881,-0.07157611684373501,-0.07353719325678727,-0.015336373931579972,-0.02277764765667723,-0.02488948737805592,-0.017425983997572395,0.06946491659297407,0.16113059426984708,0.012486047513168558,-0.06677152812613209,-0.03481417092231474,0.02855772048047054,-0.007437443607748657,-0.032803609623731377,-0.05286760652996491,-0.011858945008403059,0.017850586472430326,0.015804019270360452,0.0616329776967799,0.0789993025125489,0.013655844451638291,0.044309077539784573,0.046057842282351664,0.047517447604954764,0.042323607150984516,-0.06934032123151497,-0.05876606421901902,-0.1832282923016051,-0.06696535598407605,-0.01995716571011567,0.10040939727409649,-0.03379542073316564,-0.05263685308378946,0.1475621220400631,0.09601967575274396,-0.00008999090451563382,-0.02232011859970284,0.013239424639046789,-0.07713333084993473,0.026562749061963698,-0.001663600321549696,0.012471763003902457,0.08051723184561259,-0.10933114072848481,-0.041368265613327446,0.023349573440028266,0.06404823709084816,0.025433318256229867,-0.007665286734072861,0.15438014939168462,0.09726357829453344,0.10172786349190169,0.07769693770239089,0.028493718478748705,-0.013468435462179398,-0.007991817096211109,0.01965859921239189,-0.03061795642782507,0.007291519662699401,0.07191574123208143,0.06179001070225717,0.017816839703336296,-0.10698797300729822,-0.1546242823181986,-0.006360289249080882,-0.07482102202990668,-0.04464524859003206,-0.1131844276037644,0.03040448743485397,-0.01061464092147112,0.08370438334723859,0.024015832852924072,0.10879858750094716,-0.06611278187550945,-0.004198626995491019,0.07892486092009855,0.04489515845618167,0.10958805910563382,0.03387085894571027,0.013207495271322192,0.06595067381257151,0.03378604757107514,0.03029417263728436,0.06663603025761411,-0.21144852477271459,-0.13837933582287984,-0.10519530869623264,-0.08327018868963794,0.04884606214147531,-0.03998710104935851,-0.13293542043410925,-0.0922594937289675,-0.004818933909295283,-0.13203731485356834,-0.05925142755592042,-0.05334157400835918,-0.07247667085564599,0.07501225899294109,-0.07802260074380753,-0.020833796994864463,0.007629428804073717,-0.014988579594663787,0.06966076583754799,0.12207935458650758,0.05182155682811988,-0.005906788546132705,-0.028180510547478173,0.02167062822111227,0.0766120467526403,-0.0961678694781889,0.000754160642915149,-0.022229732587088994,0.0607499200495262,0.023831649249236916,-0.05666558101197504,0.06640648267765616,-0.018151102597842837,-0.04737401140804157,-0.11845839692393353,-0.016236264202674894,-0.04023558634422311,-0.08939577738549584,-0.0801344389751571,-0.10027773850534455,0.0769314981299938,0.06264005053442828,0.05722277777723369,0.05382635708832436,-0.032911842937091894,0.049218322312069504,0.00952143148702516,0.04479360635771761,0.10273342152482581,0.05767971684189546,0.08027945208639875,0.05238666486637096,0.06415636992558858,-0.023303166953999865,0.027753656302000215,0.054059681168956285,-0.016021740231221198,-0.005154228641573012,0.03231596350758358,-0.008484044791304383,0.024139752785260538,-0.06399051514995328,-0.1434912933325845,0.09222784425479781,-0.050986970219092875,0.006464571382195268,0.020220424309252607,-0.04021564032360182,0.03851632342325523,0.06133264627747484,-0.0384640374646149,-0.04405857125344822,0.01580950364351585,-0.020165434699644914,0.008987151803491904,-0.0594073258297921,0.058441205363479604,0.15209445861909723,0.1453786672299626,0.09536811481185552,0.06484005141850752,0.1209463765161336,0.066610877702516,0.08603782864048738,0.00531271653093687,0.027073114591537977,0.08889987977404111,0.11600575939416523,0.02276876208200428,-0.033945875895957586,-0.09481364364202634,0.043943269690175174,-0.035137521767307264,-0.12428227654979217,-0.06621896243745255,0.021618319885641862,-0.04847410205157202,0.015764747832333843,-0.07396343796294226,0.006567404922279403,-0.03304035941179977,-0.011022045196477695,0.06476932502652859,0.07986338245165664,-0.016776999576128868,0.0922801856578311,0.057493494371631405,0.1865068892202498,0.0967934764113675,0.04734436983910338,0.09670173925193239,0.0035993475827921424,-0.039252530994341034,0.047092436841522325,-0.019531890103227468,0.008397231130903042,-0.07548670428684624,0.006231630639698886,0.004153252162639062,0.12330468657804151,0.053446065613635664,0.0009436068376669789,0.009802598945597747,-0.10377638443346562,-0.011883184118298064,-0.06271078507533637,0.07278297824232033,0.01984244569147451,-0.011910743759024772,0.00009000465171910174,-0.013152182729655328,-0.06934957524611367,-0.09335576864880457,-0.007864430585570273,0.03181366790736976,-0.03148966844116518,0.11007693420652415,0.23591696666812315,0.17702874164391683,0.07164225709177152,0.1420528536376267,0.19053513790161006,0.16676922333517466,0.12937038505235618,0.0424054074102488,-0.008081546242505422,-0.026595603615388402,0.011323057602054779,0.10885124172657094,0.251497512412668,0.07080849523362134,-0.06750215757269126,-0.0575120404160417,0.11245582758020695,-0.028294996032727924,0.08609675364278162,-0.06089397017014508,-0.022419437010850963,-0.0369921114102157,-0.13606488463787422,-0.15638776635445945,-0.1747269345159136,-0.09119185416229286,-0.12995178491775938,-0.0017476800725002369,0.011919598647503683,0.055960549282311534,0.17316452942508687,0.23854599072474145,0.17590819691495224,0.033062706822154495,-0.03135248947521573,0.061702832543613736,0.18473673286334738,0.06810746033034622,-0.026185537332794873,-0.026260877873026098,0.043636193545627984,0.09664579544153165,0.039343797623054455,-0.114985990499883,0.07576496863625469,0.03608152924976465,-0.049054291825865216,0.030193793480902335,0.11726492931931336,-0.08500779978939954,-0.11638583064697673,-0.13514059780490906,-0.08153527961222404,-0.0636686981813372,-0.13655214845971572,-0.14728298969386652,-0.14255308340394526,-0.13996471137551872,0.06234898598237326,0.1883604211042879,0.00510983529659947,0.04059268617705233,0.0066052334738147785,-0.058983048917655094,-0.0032241753358235553,-0.004351003294989217,-0.022145103363502693,0.18991027502403027,0.18920810018519932,-0.055218714230162176,-0.09059654042649504,-0.048708719340964386,-0.0332619974972686,0.09836122239999423,0.009246387063044911,-0.0011906308984150958,0.059153822710402454,0.0891502985524861,-0.08579674114632238,-0.06475232266513568,-0.026431349551131862,-0.17563558143349153,-0.24800932430228934,-0.1360854393982013,-0.2838403919418508,-0.15814426569764498,-0.2420085689189186,-0.022917197425156802,-0.0920039676358839,-0.1048610229231352,-0.078216616783066,-0.09492464557627549,-0.09601374047253912,0.08467247216966538,0.17549587341429645,-0.06256228664853306,0.06675404798416176,-0.07929664109887737,-0.13473856387999678,-0.10030859331130178,-0.0475088289949006,-0.006636548856818882,-0.05565666284605969,0.07224330516898912,-0.06233477956785079,0.010974501794803289,-0.07514014542695324,-0.04546063490250839,-0.10365468941768162,-0.08890229821033528,-0.15271525841743372,-0.20301286508258365,-0.2881790531910754,-0.2649118747191541,-0.17738604649026982,-0.08395348088281387,-0.05815744141624265,-0.061386153876512015,0.024317044007498727,-0.06616644875317806,-0.11635229875595443,0.06975011780070708,0.03920510548634573,0.06651008184420494,-0.06975479904332169,-0.044984468655634116,-0.10440601764211337,-0.06584926105467492,0.003279178663255204,-0.060058772374314534,0.04196088047210954,-0.024394224825169664,0.06128055222262897,-0.030542462545995134,0.04101811804214081,0.011676505800342454,0.013740751677060632,-0.009791095018184042,-0.06464432913878097,-0.07113328985451618,-0.08678166261985129,-0.17937078573196075,-0.21196669805825283,-0.0720097801891802,0.06650867647936914,0.05007063540760046,0.06060400987062369,0.0962444746529089,0.061030218305554475,-0.017407428136926768,0.03801487450525833,0.061259958788189996,0.06135342053674244,0.02290357083142431,0.0089964260491822,-0.005283403901921774,0.014881132248444402,-0.058178904797075895,-0.012743690834715025,0.05934908786599366,-0.0050678149455745105,-0.05727262778329694,-0.026529857409264314,-0.015371238721317695,-0.012242766282914,0.03570058393433873,0.05871197968730302,0.1484792497794154,-0.019941495989911538,0.19326944688045916,0.0903873983196064,0.11661605541518986,0.13471692395371299,-0.10187992727875422,0.08890794077215176,0.14887100919559879,0.003119064891430722,-0.07634949260643895,0.07571461734819461,0.1315373727641528,0.006206407065919042,-0.09473156950836524,-0.06335260955472449,-0.03990616320804753,0.08075423479834838,-0.06557879525430632,0.003014551572397808,-0.04493723806082601,0.008316309289509466,0.017984950828783153,0.014082288424926249,-0.02597325995487998,0.08906335209376005,0.030285295579184007,0.02308919017311017,-0.026993486865062068,0.07622132792337828,0.024367952303529956,0.053008793246858185,-0.020372043979209182,-0.1192397339670793,-0.04043793716063041,0.052304217150019934,0.05560519883889694,0.035611198469750284,0.06143907585129552,0.01128666089579154,-0.0025585659168386983,-0.02855014826098987,0.02221917510236064,0.010148936439797338,-0.011497526735293915,0.033077760712711186,0.0100526572405489,-0.0830903797346843,-0.021017004541392086,0.010538336930180726,-0.009189048728556526,0.05987999186810862,0.020508897013465473,0.08573540348153041,-0.012195800878574031,-0.10336223245968011,0.006391428060631237,-0.055348349556441315,0.049413465553757425,-0.1314302340291422,-0.031147740125364292,-0.00454824379757648,-0.10006521465106533,-0.055690487047732544,0.023180956799207158,0.03866804284525411,-0.036121813159204964,-0.009532413671485468,-0.07392030591150454,-0.01439681063568161,-0.04453350544486004,-0.00855185243825338,-0.021738232606474447,0.045897657304935086,0.023335512787358615,0.01807473216356237,0.07740115951487708,-0.006426839097428296,-0.03279147162135146,0.09514473958450997,-0.05180760310203783,0.042066797296375184,-0.013057565442647327,0.0896351273421776,0.015103889740428372,0.11279968053660738,0.14085660111810933,0.0766843531369249,-0.06288712011029261,-0.014853870854316208,-0.19360386811099564,-0.06981072310435708,0.010983052559322618,-0.06192245658300832,-0.040092723694818186,0.03740544944116782,-0.05451313244366463,-0.011049030103028181,-0.05255552737961972,-0.029832966168524634,-0.0868667228859148,0.0007094057101624762,0.02553876909568291,-0.018726929134454326,-0.021997371033846212,0.011285529408498682,-0.039399291765843676,0.013161021955767098,-0.05297779373213895,0.026945797871261383,-0.07696557502055378,0.03315489798898607,-0.040861937616269446,-0.0886485121276287,0.06036635032858572,0.09594145828465188,0.1127355072666591,-0.08878156589678646,-0.05292107541433556,-0.09740247784079772,-0.010208734981324647,0.0009138362975188206,0.029579109776009964,0.04666690021522627,0.00003964441847783714,0.04685340806387597,-0.03854533162569292,0.10772542584049526,0.029858636701250444,0.046247569852777844,-0.029385491503359246,0.030952689066790412,0.057799163318764356,0.0006363840756575212,-0.023648233033164292,-0.04828577846121968,0.02548855027372104,0.027669872621622293,0.032822743476397784,0.05483143798885384,-0.02307992996325192,0.02544818848043619,0.07056239654195345,0.10469213405043398,0.04076581307201776,0.12144055939498016,-0.04309463429302048,-0.004890718408154631,0.022442885054250537,0.026469392404114816,0.0543838581517809,-0.06597726269688073,-0.05025033746690341,0.06816870173166636,0.01922350658401698,0.0955740482713881,0.047377503739809534,-0.04509944673039269,-0.02589819291103661,-0.00011838925943520499,0.03546055684562754,-0.02971151671118689,0.0699511703787262,0.1185622851463223,-0.0414727517057862,0.07511436681448297,-0.06689499691849825,-0.03695123066433635,-0.03213274140937313,0.05876660606811537,0.1374401917269737,-0.045633408962453714,0.003309457362442415,-0.006307910705974298,-0.010334190765919621,-0.029249806373354253,0.0357618917979693,-0.00567044448873109,-0.06047053976431449,-0.00020705114272089617,0.11143241180722757,-0.022303048888398343,-0.0019261179256899676,-0.05065631488660814,-0.04568754910229041,0.04782832318844005,-0.02689526660372077],[0.04838866560861626,-0.06760122522460069,0.03317455257619005,-0.04218694525154762,0.01370720439600097,-0.012954118022420351,0.05592959944797977,-0.10178518481075896,-0.06061906632255187,-0.07558795640145113,-0.055852113265357106,-0.009343429996604407,0.01786917719786351,0.05292766528828698,0.03207732202172466,-0.005920954061655576,-0.0036485749925543455,-0.009623071004964746,0.013335783242745633,-0.02297890712092339,0.01826888675077133,0.048888103135856474,-0.03377558715605154,0.1395916824897377,0.04292618206823251,-0.009466347152537103,-0.007202283573625758,-0.02415454884174303,-0.01982387795338345,0.12557166385623952,0.024880766058880885,-0.021270112836339707,-0.11476854396648509,0.06016928364457578,0.01840117399049846,-0.08548717230775305,-0.07355511028566447,0.04511322262772186,-0.06761647005195803,-0.01804837918377457,0.006936350283885956,-0.08638065121532217,0.004405608916550554,-0.02990768353321003,0.1206479787956057,-0.049519911564355285,-0.04339800895628157,0.09851722702493527,-0.013470995781884166,0.06490641019318749,0.04768960375422613,0.00018219596176659902,-0.051128017679037956,0.022749207716656433,0.09566312986906542,0.07341539556443444,-0.1485678354798155,-0.017602942679278685,0.04935500345358944,0.018330771628540535,-0.06403211178071294,0.02587273312591936,-0.004241926705265766,-0.022215562027130632,0.12331944709345183,-0.038181016883697,-0.015154057470900978,-0.0004435669810695938,-0.03336987464311886,-0.021349605745723754,0.03273979366607569,-0.04745938914903124,-0.08595122196785812,-0.07371940903715206,-0.03019469641197331,-0.007604997745107488,0.07798145996590859,0.021872145601920596,0.023961672825876915,0.062256295154548606,0.023144375711105128,-0.004328784145802958,-0.02238870957888473,0.07075286296404629,0.018628139199579313,-0.0029978178785430055,-0.058179487126358356,-0.02557383856616928,0.0016498169306589994,-0.03839526514282781,-0.027347598635837526,0.051116979503619056,-0.06955318407907868,0.059960355856514734,-0.028809363017670384,0.007253421974868694,-0.07153472377001095,0.0959322362052589,0.060247267346406196,0.10389855286297746,-0.04054509300060872,0.02175979395002557,-0.05602673078130957,0.02407206208705838,0.04255376745620895,-0.029619223297884672,-0.022855926036840276,-0.0184300421866566,-0.07386813748237767,-0.02676591985570299,0.033563961392479226,-0.014373409258725654,0.06184053365082823,0.011135075532723788,0.03659033814209805,-0.0034838096520158814,0.021387589032864165,-0.02078898912995968,0.019787255335274045,-0.009223831064380938,0.037583395306897006,-0.08479818328382506,-0.02034808377572565,-0.12826444528601258,0.007450580849118583,0.0217773336742815,0.06509480718625994,0.08226176702600577,0.07969585444118567,-0.014458676500067734,0.04763842607981312,0.03286980512130287,-0.1265686855777928,-0.08217623098691114,0.029308781507463494,-0.07429569881693868,0.08751857086437115,0.0009401181143883217,-0.06582334783958886,0.06471826625016357,-0.021379633667834103,-0.018404944065290568,0.019867524956707645,0.012873072512332768,0.02859953612803539,-0.02115928446439114,0.007703338011918411,-0.02213453591455339,-0.12657839416520036,-0.0062037735656546794,-0.07091232011577767,-0.042847207672896154,-0.09441704824336797,0.06142276118308822,0.11787163705180315,-0.014200593894122445,-0.1084543012435662,-0.05404272120737177,-0.012780254101735857,0.020711211850486907,0.01943342693320646,-0.08395111671689709,0.028963886031879875,0.09949039216507793,0.003388215357424992,0.05559587810141253,-0.03640341879553955,-0.05156383073441993,-0.0013061797656836482,-0.018433282520962786,0.13842966329562592,0.005536668896847765,0.026888804246380883,-0.0391568380004519,-0.015496161883872947,-0.110719267326429,-0.07955569151478861,-0.0728335314343698,-0.09065913030319692,-0.06390093508580669,0.071421963491974,-0.01480474595488373,-0.04379173376970316,0.0323601802986102,-0.07321363125550709,0.013890000933983659,-0.06723310515440516,0.037430961504106686,0.13860929233870584,0.003268425324929153,-0.0038083876003569316,-0.014947927324990522,0.006636012610654591,0.010346480143687303,-0.05547919493119535,0.03549727109251074,-0.010174721109279845,-0.03661196842832256,0.13411577312871822,-0.005914604265998169,-0.05715151579971742,-0.09907730089113065,-0.06942873983834234,-0.0370549368244458,0.01806917794503724,0.07709457891705314,-0.07598990265912323,-0.00981676977812627,-0.06515404699055426,0.02861879215387321,0.05969838064384336,0.07611473980190618,0.038450619963234046,0.06609098214498688,-0.0451442194483932,0.010288142787988468,-0.024245893178636763,0.13928250550995033,0.07662150687980593,0.010723916008349205,0.006183194522359012,0.00931494561359241,-0.13434621829805424,-0.09453750936379049,-0.049757866480184675,-0.028950352416189085,-0.03849054382650316,-0.030121282254197593,0.084160961549904,0.15453467322462716,-0.05024023731081792,0.045015463857457805,-0.015144905912209995,-0.03212895805269376,0.038189028429101594,-0.06486720596005455,-0.018213272327998353,-0.021694314401760503,-0.02403215527835154,0.0347179207784589,0.08073303054887007,0.03230148968490876,0.039870679342489966,0.016625195787242947,0.06829170153628752,-0.018922822116497304,0.020058640482604913,0.06578012927890464,0.023673846371963504,0.03247714789511901,0.05035174877121796,0.0766376765321211,-0.03600418370639907,-0.11633374395471939,0.0711668471469471,-0.05801055139316705,0.07542515308825068,0.0601463876945588,0.16766503374290703,0.1437441766661955,-0.09236594947690642,-0.04844486370313031,0.05298074153600697,-0.03723750368590901,0.0020999503688329925,-0.11111583324558058,-0.02150779765675765,0.05915599211967614,-0.009765627752794454,0.0020958835980427943,0.07499433368592187,0.07917666027799403,0.09882623739725495,0.036781408490856975,0.019069919982776233,-0.006879646119334304,-0.049475083720673614,-0.06084638147024317,-0.01876501192001609,0.004267241460211632,-0.02090972577404812,-0.00403709169297681,-0.049175574253757744,0.11710715234606471,0.06704839821778012,0.189498060819798,0.09661087874224197,-0.06236198292374133,-0.0015449831804278018,-0.02800668971771033,0.045331024694808604,0.0540784932648127,0.07585590407124376,0.0524078601853965,-0.18877024103336,-0.15225400290457713,-0.036999931856944016,0.04890339516595948,0.05360546478237927,0.04231266714957475,0.13963011110851847,0.11698985879046143,0.030207947030156983,0.04913725318227397,-0.006110029229956033,0.04395920085880126,-0.029467439814101687,-0.016168673903423022,0.027259445421544317,-0.09203080458153089,-0.027231699283435357,0.1590530994319934,0.10814362320506953,0.12685570574055238,0.10897751379379163,0.19836223984645496,0.081454549124766,0.10442326683806856,0.10309828398498644,0.16703335575790584,0.03298747649702414,-0.05795164288308607,-0.1433340373010722,-0.012013748290639226,-0.006992778229822073,0.07188681342633031,0.014316869793690923,0.09624045847936494,0.14065737740198306,-0.06213972126627346,-0.006771917735109811,-0.036478921810968686,0.03237830043878469,0.06779080391450922,0.025969615159004325,0.07190283382249457,0.06725060629531618,0.00794808449421278,0.029994499856766325,0.07121410930942083,0.03741982225809914,0.07702087443615659,0.16389952724265838,0.20556151027354735,0.1921348762776695,0.18203793739224866,0.057770098733847385,0.0964818207771934,-0.034992686151701785,-0.32031823647602387,-0.27340083695223016,-0.05842397670626882,0.10089097534155197,0.004939984042329843,-0.04866263512876185,-0.04418472054940408,0.03363270884958605,-0.020665479043513207,-0.021231282517482006,0.06618874887430842,0.037347705932236734,0.03592674569898072,0.037329392079544534,-0.007833213139733858,-0.06903482057614917,0.016853327027690077,0.013583432121633975,0.030789349201544653,0.006198833298529734,0.1501672364551265,0.0470654578979565,0.19416035476512847,-0.010988863511299442,0.07309937049589534,0.03813694855322019,-0.0297820601484026,-0.27631415262722614,-0.2125340755255085,-0.14662766525935644,-0.07008482793515176,0.08978719406427678,0.04582671080553664,0.0026044888725135417,-0.06722380416244352,0.02029744859137752,-0.077873614821983,-0.067220571991921,-0.06152370783575637,0.038307347381431114,0.03667767556589954,-0.08103171539190115,-0.03324794921037726,0.07390303525972883,-0.0066793252116695255,0.032661992335480936,-0.09215745172409995,-0.06912119711064305,-0.04306395881002411,-0.1555257370544002,-0.06346343428459299,-0.06429124053295479,-0.09364626167901376,-0.15958772714726877,-0.30120527843437783,-0.29129949950987566,-0.18085956444669418,-0.21224064710774732,-0.06482105303621022,0.07097250196359521,0.030471142159056226,-0.10063987788041988,-0.20079718119686574,-0.03004932341111204,-0.10552079768519204,-0.05022731491775881,-0.08335179568101438,0.0070193857816048975,0.017724910392191897,0.034650975433684394,0.050621531045813406,-0.10029168474449675,-0.01845270596257741,-0.0738038396476586,0.010460843413969497,-0.060080341272910294,-0.13443987648808822,-0.10497365346254828,-0.0876811454285937,-0.059811087668957354,-0.17202770160300243,-0.27197726214043877,-0.21699834719511846,-0.12276652753936267,-0.13334237271926294,0.008168264193053016,0.04454266376811476,-0.06557802046581138,-0.017991954083328897,-0.12878723012743115,-0.12317486868643261,0.007257495588060186,-0.05488384902861977,-0.023364650493575164,-0.021799225986218595,-0.0065371898653338294,-0.09841349940535916,-0.04676076736475966,-0.014994393279440936,0.01782848442377691,-0.007993674878335685,0.03188956513002258,0.020292903296033338,-0.024394588310018454,-0.08630145277180712,-0.1082258292740898,-0.2654299550369642,-0.12228252967033132,-0.17750932033863923,-0.26001193491352276,-0.08267376527761851,-0.0017426878662221762,0.01597382120825137,0.032272874416051645,-0.07803202508545666,-0.018815259342685797,-0.029910830096933426,-0.0030255204059895405,0.04598809027036028,0.012987170800294583,-0.042444179043466826,0.03230069771262492,-0.04200359718687813,-0.09254778035046018,0.0328092377912469,0.0425592749781437,-0.06118300549276806,-0.000857259741035727,0.006866256537823003,0.0017017644417571922,0.002416986832147621,-0.035274703749934924,-0.07238838608413463,-0.16776209676522175,-0.18199411927911835,-0.07860997603444961,-0.17556610827886227,-0.0920551049051939,0.01515870288122036,-0.0006876685781115153,0.014472391396885075,0.003870459792799638,0.05019080268863918,0.028749660624526014,-0.0690930054348353,0.039033231658037175,0.062026553419145904,0.07262354039689865,-0.11412251446614746,-0.02739500934319799,-0.05217565359203022,0.007485325633041605,0.009328357788834602,-0.02071155169595749,0.027557703728462824,0.013965085416473875,0.009722910139352912,-0.015676815844300498,-0.015075260420924916,-0.10298154029536943,-0.15582640664661182,-0.15316252260275254,-0.07317988441485514,-0.06293733800121747,-0.03427800154397094,0.07424125906332346,-0.003474669276052406,0.04117821417959399,0.009432019725984767,0.10273072853623492,0.04568268550050766,-0.024629494838278046,-0.06689448088776846,0.011886481257179136,0.009833340704818776,-0.06585213822720751,-0.03945542281742105,-0.0593160886327147,-0.08232232943453484,0.09032302259059065,-0.1510774648033314,-0.02245130708005775,-0.01727648488745026,-0.022687473964424755,0.03110172779768978,-0.08919114132046554,0.030656185567846304,0.024512791469249208,-0.102682280782742,-0.07324288271610092,-0.02949877262846985,0.033467211792535034,-0.09020342816340034,0.019950953432325204,-0.004308520791338559,-0.024228642338044608,0.03440621940407293,0.03595637555601127,-0.00997041353690839,-0.036049056801903345,0.0780723307597786,-0.16170028787236676,-0.04148898762716003,0.04419683848853107,-0.10696724431972579,-0.07791769895197233,-0.05740794784087358,-0.035312944088879084,-0.0205141342227865,-0.006294659589241138,-0.06892642203715398,0.05386917113578578,0.01165363815864873,0.0536363596099288,-0.04333619822493119,-0.09371501979718282,-0.030311995710473445,-0.07205348817748645,0.009607785640760796,-0.005973049262839001,0.0311265599556768,0.03175496387607146,0.031000120351266137,0.05555115206713513,-0.05100241652158723,0.06636865638031178,0.015575908338623485,-0.03502776920006045,0.0016747307017358872,0.01610307533544908,-0.10505755071832583,-0.07264149770295587,0.00013028964462300874,-0.05694136080668025,0.0068168041880314065,-0.016602248954692818,0.037440987027370275,0.07133657381780883,0.027430204319916853,-0.026581959277599945,0.028642957433721406,0.018510085984853295,0.11348138834363772,0.014860384987378598,-0.005835827182523995,0.07601239473573941,-0.07650886758221406,0.026068373937555556,0.025989022244425248,0.011709926207203018,-0.03972332922635018,-0.009865913698950258,-0.05263555123633667,0.05792324735218141,0.05794194858646104,0.13021307867152854,-0.015514964402481396,0.08631025737339011,0.08886106556811073,-0.0230121685191731,-0.0027316519143169237,-0.09494114329955125,0.06479422378547514,0.0789294043073117,0.0545834665496512,-0.04905154605512656,0.06635648114782264,0.04016004350063721,-0.005336261918235141,-0.0020150503582131987,-0.008222828846250672,0.029020125309246653,0.044008823968573606,0.04610849152862625,0.15675665026733088,0.17846354659189512,0.12180712651280223,0.002799791853970735,0.052318024459804345,-0.03108843628864505,-0.012662366176295783,-0.07530983426119406,0.01928959594127692,-0.03687195842696346,0.05653985876129471,0.08329924120719187,0.038695637874403464,0.10377843626730977,-0.011507649236724128,0.02668953965074625,-0.014173198906408096,0.07752260110611989,0.06680146756788967,-0.042765017056905136,-0.07598228819277962,0.058883015033598725,-0.09825741598031144,0.07084165527829714,0.06381615444203284,-0.0720101136088696,-0.0539884574336375,0.19297193999157572,0.1523426058592911,0.00042775481721945695,0.04778432722498377,0.042289301638150714,-0.036255970109528156,-0.0356258905192725,0.05527559917826118,0.05613770349370805,0.10023595580365802,0.04172046704209534,0.06696731097496499,0.07482095190912219,-0.06013983912130968,-0.07215456918032927,0.04723555892686496,0.006419247099917126,-0.06720974779981742,-0.0012149490469080676,0.031283448272823866,0.08222575859716089,0.01648357049812095,-0.012223369332067151,-0.010260912197133772,-0.06612823446411464,0.09657303243615616,0.11289975339578694,-0.04162163352644492,0.03570460791352715,0.09134563283600829,-0.03800822299742641,-0.011578508139219535,-0.05328605087976019,-0.02833652231463678,-0.017904542370524773,0.012665521488308375,0.10430463032881168,0.12137111902280341,0.026611496018417342,-0.029673405132789477,-0.021309334101293653,0.05283824073253448,0.05205646106328515,-0.04142551701189751,-0.07569593539208375,-0.0014732734882806418,-0.0013209493939161016,-0.01582495168320691,-0.03582710103249041,0.08897139446209262,-0.07040449250842579,0.08142883600789777,-0.027222824147307118,0.007274300559405097,-0.05292634908098073,-0.05978689368523927,-0.009060704611892725,-0.06878363211622333,0.018122660834217756,0.0029577310486839474,-0.07044859012800943,-0.005675844617972985,0.056022928629381796,0.04967098875190436,0.06407843058865709,0.1516111758465762,-0.011671224672599935,0.043139041668354514,0.053925287815563876,-0.011917391331070913,0.055600478000560644,-0.028822367480038594,-0.07712428556140258,0.06370406702041964,0.0501534691809058,0.06870938407985745,0.06520446831083156,0.03186082241182241,0.015771436777201015,-0.03812958598103032,-0.009556422199033148,0.03430397031118671,-0.041758948081571205,-0.0236414895934533,0.026792451648729117,-0.009184078960482428,-0.06204914208358013,0.029322309594002654,-0.08127296209769165,-0.007141350078823583,-0.027917752194297363,0.055984674421842115,0.05154972593118028,0.02870187488272495,0.031342458172119086,-0.04399086069847748,0.048793061316898124,0.011849247746468016,0.07064623084186487,-0.08141028851497147,-0.02307944208881919,-0.02294073388103786,0.07436792717694438,0.0018931308851750626,0.017036101359329234,0.01762528032605062,-0.006794520832408742,0.013532726420578884,0.007993122766935961,0.04439651905713438,-0.051681823769960236,-0.016831059162855086,0.021104794843222745,-0.07486744070982944,0.0375094830296589,-0.07820692939944816,0.060946243403177565,-0.03008195043686477,-0.031579520066388665,-0.015166316274911868,0.053188332017405984,0.05366895635446579,-0.06920635011193085,0.005948438721780098,0.08520757718729387,0.031663240207510886,-0.044353615590433895,0.014276830939295338,0.043268000749041656,0.025887264917250016,-0.0021929997167613254,0.1385333735849415,0.0505190942573175,-0.05806887111192997],[-0.07204689179546588,-0.02742488180164793,-0.06310980774802893,-0.002300095493394698,0.018660083445115105,-0.04230873274905648,0.02373417865120821,0.02487876320097685,0.023800882697119576,0.007554818641470519,0.018632413676565873,0.0934096394729924,-0.00872640233917997,-0.1722190441638163,-0.01942905387021309,0.08814127963528524,-0.048183023937111935,0.004317033099071604,-0.0073492141401818815,-0.015357668914677177,-0.01949811709198718,-0.03686703241535991,0.004855618642249048,-0.11188943077972714,0.02838511603905157,0.06260856929101466,0.09534491990371617,-0.09657498595191716,-0.09685587098320239,0.08171816341918907,-0.0868126172697257,0.01977224706014607,-0.04939455287174559,0.09022111350973519,-0.03260543151000553,-0.09656454813475904,-0.017859448973565943,-0.06058457718343285,0.03721576172923114,0.044852870809948986,0.0121639691533114,0.0901511264317091,0.06382671414149234,-0.019247419448252017,0.0234010194620335,0.03368356252417752,-0.04889865450742571,-0.01473424177012562,0.056739752096299695,0.018469136504609796,-0.07162621243307293,-0.01657987406881812,-0.08591153608918586,0.014802683897896584,-0.014042448065425006,0.00301582566433092,0.0542645815191167,0.020978871111256972,0.08560941364011838,-0.04313929121900575,-0.008838750355813696,0.05636970163519751,-0.02264475184372355,0.02790105106526653,0.022664784750161163,-0.071325126624033,0.019948289103303252,-0.056079372716830216,0.12524129509725943,0.06860331226081615,-0.03311207754295144,0.05138562697284468,0.06750111269510692,0.0676200841870126,0.03045130151479024,-0.09757895821054445,-0.038891858107210395,0.05077275794905695,0.09103426077123224,-0.003752894227680755,-0.0022490428699429416,-0.09352259522760019,0.06867791595054758,0.06850410884840272,-0.023655106717905435,0.011304233942464093,0.04308651149538377,0.020303077408844867,-0.010405196314445093,-0.039938285675217365,-0.10037015873598547,0.014212002463418456,0.04984733877530822,